{"learner":{"attributes":{"scikit_learn":"{\"_estimator_type\": \"classifier\"}"},"feature_names":["Pregnancies","Glucose","BloodPressure","SkinThickness","Insulin","BMI","DiabetesPedigreeFunction","Age"],"feature_types":["int","int","int","int","int","float","float","int"],"gradient_booster":{"model":{"gbtree_model_param":{"num_parallel_tree":"1","num_trees":"100"},"iteration_indptr":[0,1,2,3,4,5,6,7,8,9,10,11,12,13,14,15,16,17,18,19,20,21,22,23,24,25,26,27,28,29,30,31,32,33,34,35,36,37,38,39,40,41,42,43,44,45,46,47,48,49,50,51,52,53,54,55,56,57,58,59,60,61,62,63,64,65,66,67,68,69,70,71,72,73,74,75,76,77,78,79,80,81,82,83,84,85,86,87,88,89,90,91,92,93,94,95,96,97,98,99,100],"tree_info":[0,0,0,0,0,0,0,0,0,0,0,0,0,0,0,0,0,0,0,0,0,0,0,0,0,0,0,0,0,0,0,0,0,0,0,0,0,0,0,0,0,0,0,0,0,0,0,0,0,0,0,0,0,0,0,0,0,0,0,0,0,0,0,0,0,0,0,0,0,0,0,0,0,0,0,0,0,0,0,0,0,0,0,0,0,0,0,0,0,0,0,0,0,0,0,0,0,0,0,0],"trees":[{"base_weights":[3.4884103E-8,-6.6353714E-1,1.1457636E0,-1.1683153E0,9.492876E-3,-1.4582965E-1,1.6202219E0,-4.332514E-1,-7.6816833E-1,-1.2403368E0,3.535679E-1,-8.178688E-1,7.994178E-1,1.1025915E0,2.1871655E0,9.7191826E-2,-9.352929E-1,-3.986735E-1,-1.0331828E-1,-8.417941E-1,7.29643E-1,-1.03544295E-2,-9.5001876E-1,1.2425601E-1,1.3007436E0,5.1637226E-1,1.5131867E0,6.789447E-1,1.7800069E-1,-2.960264E-1,3.4397435E-1,-1.2447394E0,-3.4325385E-1,-3.6889455E-1,-1.2920968E-1,3.2361513E-1,1.526272E0,-5.5145776E-1,-3.492447E-1,2.439505E-1,-1.6570476E-1,5.3036857E-1,3.7341204E-2,1.2312212E0,-3.503934E-1,6.63197E-2,1.6833715E0,-1.03544295E-2,-4.1747338E-1,1.0372154E-1,-3.4292176E-1,3.1866017E-1,-2.960264E-1,2.5160354E-1,-1.5169474E-1,5.2159894E-1,3.7341204E-2,-2.4190837E-1,3.7341204E-2,8.6656794E-2,4.9351507E-1,-2.773345E-1,2.439505E-1,5.4880744E-1,1.1679803E-1],"categories":[],"categories_nodes":[],"categories_segments":[],"categories_sizes":[],"default_left":[0,0,0,0,0,0,0,0,0,0,0,0,0,0,0,0,0,0,0,0,0,0,0,0,0,0,0,0,0,0,0,0,0,0,0,0,0,0,0,0,0,0,0,0,0,0,0,0,0,0,0,0,0,0,0,0,0,0,0,0,0,0,0,0,0],"id":0,"left_children":[1,3,5,7,9,11,13,-1,15,17,19,21,23,25,27,29,31,-1,-1,33,35,-1,37,39,41,43,45,-1,-1,-1,-1,47,49,-1,51,53,55,57,-1,-1,-1,-1,-1,59,61,-1,63,-1,-1,-1,-1,-1,-1,-1,-1,-1,-1,-1,-1,-1,-1,-1,-1,-1,-1],"loss_changes":[1.0727916E2,3.0369175E1,3.194899E1,4.527916E0,1.7334192E1,1.0068308E1,8.719543E0,0E0,3.4138365E0,2.3299122E-1,1.4813513E1,9.150653E-1,2.0939965E0,4.476391E0,7.2637177E-1,6.3922405E0,3.118023E0,0E0,0E0,2.0586233E0,7.4508915E0,0E0,2.3435593E-2,2.2881453E0,1.8233914E0,6.946951E0,2.3388062E0,0E0,0E0,0E0,0E0,2.142765E0,4.8166637E0,0E0,5.079004E0,7.91541E0,2.1723995E0,8.972386E-1,0E0,0E0,0E0,0E0,0E0,1.8585892E0,4.4463153E0,0E0,1.3171177E0,0E0,0E0,0E0,0E0,0E0,0E0,0E0,0E0,0E0,0E0,0E0,0E0,0E0,0E0,0E0,0E0,0E0,0E0],"parents":[2147483647,0,0,1,1,2,2,3,3,4,4,5,5,6,6,8,8,9,9,10,10,11,11,12,12,13,13,14,14,15,15,16,16,19,19,20,20,22,22,23,23,24,24,25,25,26,26,31,31,32,32,34,34,35,35,36,36,37,37,43,43,44,44,46,46],"right_children":[2,4,6,8,10,12,14,-1,16,18,20,22,24,26,28,30,32,-1,-1,34,36,-1,38,40,42,44,46,-1,-1,-1,-1,48,50,-1,52,54,56,58,-1,-1,-1,-1,-1,60,62,-1,64,-1,-1,-1,-1,-1,-1,-1,-1,-1,-1,-1,-1,-1,-1,-1,-1,-1,-1],"split_conditions":[1.28E2,2.9E1,3E1,3.1E1,2.63E1,1.47E2,1.58E2,-4.332514E-1,8E0,1.21E2,9.5E1,6E1,1.4E1,3.1E1,5.1E2,1.08E2,4.87E-1,-3.986735E-1,-1.0331828E-1,3.1E1,5.14E-1,-1.03544295E-2,1.35E2,2.6E1,1.46E2,7.4E1,2.03E-1,6.789447E-1,1.7800069E-1,-2.960264E-1,3.4397435E-1,3.21E1,7E1,-3.6889455E-1,1.4E1,2.8E1,4.1E1,1.8E1,-3.492447E-1,2.439505E-1,-1.6570476E-1,5.3036857E-1,3.7341204E-2,3.04E-1,8.5E1,6.63197E-2,1.1E1,-1.03544295E-2,-4.1747338E-1,1.0372154E-1,-3.4292176E-1,3.1866017E-1,-2.960264E-1,2.5160354E-1,-1.5169474E-1,5.2159894E-1,3.7341204E-2,-2.4190837E-1,3.7341204E-2,8.6656794E-2,4.9351507E-1,-2.773345E-1,2.439505E-1,5.4880744E-1,1.1679803E-1],"split_indices":[1,7,5,5,5,1,1,0,3,1,1,2,4,7,4,1,6,0,0,3,6,0,1,5,4,2,6,0,0,0,0,5,2,0,4,3,3,3,0,0,0,0,0,6,2,0,0,0,0,0,0,0,0,0,0,0,0,0,0,0,0,0,0,0,0],"split_type":[0,0,0,0,0,0,0,0,0,0,0,0,0,0,0,0,0,0,0,0,0,0,0,0,0,0,0,0,0,0,0,0,0,0,0,0,0,0,0,0,0,0,0,0,0,0,0,0,0,0,0,0,0,0,0,0,0,0,0,0,0,0,0,0,0],"sum_hessian":[1.3910912E2,8.8359215E1,5.074991E1,5.007022E1,3.8288994E1,1.3820287E1,3.692962E1,2.8093699E1,2.1976522E1,7.7031107E0,3.058588E1,8.156235E0,5.664052E0,2.0843712E1,1.6085907E1,3.6249933E0,1.8351528E1,6.5703006E0,1.1328104E0,7.0234246E0,2.3562456E1,1.3593725E0,6.7968626E0,2.945307E0,2.718745E0,9.515608E0,1.1328104E1,1.4953097E1,1.1328104E0,1.8124967E0,1.8124967E0,1.1328104E1,7.0234246E0,4.0781174E0,2.945307E0,1.6539032E1,7.0234246E0,3.6249933E0,3.1718693E0,1.3593725E0,1.5859346E0,1.5859346E0,1.1328104E0,4.984366E0,4.5312414E0,1.5859346E0,9.742169E0,1.3593725E0,9.968732E0,4.0781174E0,2.945307E0,1.1328104E0,1.8124967E0,1.0195293E1,6.3437386E0,5.890614E0,1.1328104E0,2.492183E0,1.1328104E0,2.0390587E0,2.945307E0,3.1718693E0,1.3593725E0,8.382797E0,1.3593725E0],"tree_param":{"num_deleted":"0","num_feature":"8","num_nodes":"65","size_leaf_vector":"1"}},{"base_weights":[-1.7001094E-2,-5.4264396E-1,7.859071E-1,-9.858086E-1,-1.4186968E-2,-1.1059163E-1,1.084634E0,-3.747658E-1,-6.3280857E-1,-1.0684135E0,2.413221E-1,-7.502936E-1,5.8036864E-1,5.173747E-1,1.3246624E0,1.00954086E-1,-7.492908E-1,-3.4953052E-1,-8.748858E-2,-7.061719E-1,5.0606114E-1,-3.904808E-1,-3.1539845E-1,-5.3348426E-2,8.119752E-1,-3.8272325E-2,1.0073637E0,1.4059063E0,8.842676E-3,-1.051164E0,-1.9118634E-1,-3.1977028E-1,-9.787553E-2,-5.67797E-1,7.0046574E-1,-2.6469362E-1,8.777634E-2,1.1046418E0,-2.7005624E-2,-5.105296E-1,5.3473794E-1,4.1070756E-1,4.046673E-1,1.4508947E0,1.19544275E-1,-1.7222267E-2,-3.5051563E-1,1.7046419E-1,-1.9516572E-1,2.553493E-1,-2.5902012E-1,1.7735755E-2,-2.9120582E-1,2.6419798E-1,-5.746199E-2,-1.2945208E-1,1.9562353E-1,9.539157E-2,4.6051583E-1,3.8575012E-2,-2.70409E-1,2.2378764E-1,6.5888865E-3,-1.117458E-1,3.344007E-1,2.2381492E-1,4.6571565E-1],"categories":[],"categories_nodes":[],"categories_segments":[],"categories_sizes":[],"default_left":[0,0,0,0,0,0,0,0,0,0,0,0,0,0,0,0,0,0,0,0,0,0,0,0,0,0,0,0,0,0,0,0,0,0,0,0,0,0,0,0,0,0,0,0,0,0,0,0,0,0,0,0,0,0,0,0,0,0,0,0,0,0,0,0,0,0,0],"id":1,"left_children":[1,3,5,7,9,11,13,-1,15,17,19,21,23,25,27,-1,29,-1,-1,31,33,35,-1,-1,37,39,41,43,-1,45,47,-1,49,51,53,-1,55,57,-1,59,61,63,-1,65,-1,-1,-1,-1,-1,-1,-1,-1,-1,-1,-1,-1,-1,-1,-1,-1,-1,-1,-1,-1,-1,-1,-1],"loss_changes":[5.755279E1,1.9282192E1,1.4571548E1,3.3750648E0,1.0654025E1,6.797942E0,4.8383217E0,0E0,2.6424847E0,2.3955917E-1,8.354523E0,4.4632673E-1,1.4585819E0,3.769301E0,2.8906975E0,0E0,3.0353556E0,0E0,0E0,1.5105991E0,5.721511E0,1.2992824E0,0E0,0E0,1.660202E0,2.271333E0,9.372692E-1,6.092491E-1,0E0,1.359231E0,3.1482744E0,0E0,3.5273461E0,1.1842095E0,3.7113123E0,0E0,1.3196081E0,1.0488634E0,0E0,1.2548732E0,3.978778E-1,2.6766927E0,0E0,6.0879135E-1,0E0,0E0,0E0,0E0,0E0,0E0,0E0,0E0,0E0,0E0,0E0,0E0,0E0,0E0,0E0,0E0,0E0,0E0,0E0,0E0,0E0,0E0,0E0],"parents":[2147483647,0,0,1,1,2,2,3,3,4,4,5,5,6,6,8,8,9,9,10,10,11,11,12,12,13,13,14,14,16,16,19,19,20,20,21,21,24,24,25,25,26,26,27,27,29,29,30,30,32,32,33,33,34,34,36,36,37,37,39,39,40,40,41,41,43,43],"right_children":[2,4,6,8,10,12,14,-1,16,18,20,22,24,26,28,-1,30,-1,-1,32,34,36,-1,-1,38,40,42,44,-1,46,48,-1,50,52,54,-1,56,58,-1,60,62,64,-1,66,-1,-1,-1,-1,-1,-1,-1,-1,-1,-1,-1,-1,-1,-1,-1,-1,-1,-1,-1,-1,-1,-1,-1],"split_conditions":[1.28E2,2.9E1,3E1,3.1E1,2.63E1,1.46E2,3.05E-1,-3.747658E-1,5.4E1,8E1,9.5E1,4.03E-1,3E1,3.8E1,4.74E2,1.00954086E-1,5.02E-1,-3.4953052E-1,-8.748858E-2,3.1E1,1.99E-1,3E0,-3.1539845E-1,-5.3348426E-2,5.4E1,2.6E1,1.45E2,1.441E0,8.842676E-3,8E0,6.8E1,-3.1977028E-1,1.4E1,8E0,8.5E1,-2.6469362E-1,2.69E-1,4.1E1,-2.7005624E-2,8E0,2.6E1,7E0,4.046673E-1,2.5E1,1.19544275E-1,-1.7222267E-2,-3.5051563E-1,1.7046419E-1,-1.9516572E-1,2.553493E-1,-2.5902012E-1,1.7735755E-2,-2.9120582E-1,2.6419798E-1,-5.746199E-2,-1.2945208E-1,1.9562353E-1,9.539157E-2,4.6051583E-1,3.8575012E-2,-2.70409E-1,2.2378764E-1,6.5888865E-3,-1.117458E-1,3.344007E-1,2.2381492E-1,4.6571565E-1],"split_indices":[1,7,5,5,5,1,6,0,2,2,1,6,7,7,4,0,6,0,0,3,6,0,0,0,7,3,1,6,0,3,2,0,4,3,2,0,6,7,0,3,7,0,0,7,0,0,0,0,0,0,0,0,0,0,0,0,0,0,0,0,0,0,0,0,0,0,0],"split_type":[0,0,0,0,0,0,0,0,0,0,0,0,0,0,0,0,0,0,0,0,0,0,0,0,0,0,0,0,0,0,0,0,0,0,0,0,0,0,0,0,0,0,0,0,0,0,0,0,0,0,0,0,0,0,0,0,0,0,0,0,0,0,0,0,0,0,0],"sum_hessian":[1.3435666E2,8.139418E1,5.296248E1,4.3798912E1,3.759527E1,1.3394504E1,3.9567978E1,2.36284E1,2.0170511E1,6.7135897E0,3.0881678E1,6.9106464E0,6.4838567E0,1.2702835E1,2.686514E1,1.9611956E0,1.8209316E1,5.52587E0,1.18772E0,6.380088E0,2.450159E1,4.194401E0,2.7162457E0,1.5715063E0,4.9123507E0,6.3845983E0,6.318237E0,2.5198986E1,1.6661555E0,1.12440605E1,6.9652557E0,3.536456E0,2.8436317E0,3.4612937E0,2.1040297E1,1.6513417E0,2.543059E0,3.5393002E0,1.3730502E0,3.5597787E0,2.8248196E0,3.1018288E0,3.216408E0,2.37004E1,1.4985868E0,1.3435669E0,9.900494E0,2.5359695E0,4.429286E0,1.2196864E0,1.6239454E0,1.6879767E0,1.7733171E0,1.7514841E1,3.525455E0,1.4469084E0,1.0961508E0,1.8665448E0,1.6727555E0,1.6054537E0,1.954325E0,1.678619E0,1.1462007E0,1.6911777E0,1.4106512E0,4.0341883E0,1.966621E1],"tree_param":{"num_deleted":"0","num_feature":"8","num_nodes":"67","size_leaf_vector":"1"}},{"base_weights":[-2.6297636E-2,-2.7570486E-1,1.0733094E0,-6.3335806E-1,1.5583104E-1,1.1382658E0,-3.4131553E-2,-1.0406551E0,-3.4549907E-1,-6.6980976E-1,4.0813476E-1,1.2097309E0,-1.8950358E-2,-1.1036841E0,-3.3496406E-2,3.2000935E-1,-4.5136973E-1,-8.7992626E-1,-2.1229081E-1,-5.3453255E-1,5.6970567E-1,7.0808566E-1,4.2119008E-1,-3.521157E-1,-3.7013358E-1,-8.2606745E-1,-1.3528778E-1,-3.1936446E-1,-2.8640422E-1,-2.5049186E-1,2.1837908E-1,-2.761974E-1,5.1543873E-2,6.316365E-1,-1.7080083E-1,1.0223955E0,-1.738223E-1,-2.210106E-1,5.870263E-2,-2.674475E-1,-6.0907148E-2,3.2272774E-1,-1.0999166E-1,8.908177E-2,-2.0762892E-1,-4.3986708E-2,1.3295895E-1,2.0987406E-1,-2.0275809E-1,1.2278493E-1,2.9358312E-1,5.4299604E-2,3.6251608E-1],"categories":[],"categories_nodes":[],"categories_segments":[],"categories_sizes":[],"default_left":[0,0,0,0,0,0,0,0,0,0,0,0,0,0,0,0,0,0,0,0,0,0,0,0,0,0,0,0,0,0,0,0,0,0,0,0,0,0,0,0,0,0,0,0,0,0,0,0,0,0,0,0,0],"id":2,"left_children":[1,3,5,7,9,11,-1,13,15,17,19,21,-1,23,-1,-1,25,27,29,31,33,35,-1,-1,37,39,41,-1,43,-1,45,-1,47,49,-1,51,-1,-1,-1,-1,-1,-1,-1,-1,-1,-1,-1,-1,-1,-1,-1,-1,-1],"loss_changes":[3.5048134E1,1.6163242E1,1.9517326E0,6.3365307E0,1.0266744E1,2.0080013E0,0E0,1.2324562E0,5.708278E0,9.2902565E-1,5.9956303E0,1.0796738E0,0E0,6.736641E-1,0E0,0E0,3.8231435E0,5.318656E-1,1.5154049E0,1.4014593E0,2.643939E0,3.8128483E0,0E0,0E0,8.3698356E-1,4.3070698E-1,5.7787156E0,0E0,9.5804214E-1,0E0,3.711624E-1,0E0,2.039383E0,2.005557E0,0E0,8.389163E-1,0E0,0E0,0E0,0E0,0E0,0E0,0E0,0E0,0E0,0E0,0E0,0E0,0E0,0E0,0E0,0E0,0E0],"parents":[2147483647,0,0,1,1,2,2,3,3,4,4,5,5,7,7,8,8,9,9,10,10,11,11,13,13,16,16,17,17,18,18,19,19,20,20,21,21,24,24,25,25,26,26,28,28,30,30,32,32,33,33,35,35],"right_children":[2,4,6,8,10,12,-1,14,16,18,20,22,-1,24,-1,-1,26,28,30,32,34,36,-1,-1,38,40,42,-1,44,-1,46,-1,48,50,-1,52,-1,-1,-1,-1,-1,-1,-1,-1,-1,-1,-1,-1,-1,-1,-1,-1,-1],"split_conditions":[1.55E2,3.1E1,6.1E1,1.05E2,2.79E1,5.43E2,-3.4131553E-2,4.1E1,2.4E1,2.68E1,9.5E1,3E-1,-1.8950358E-2,6.74E-1,-3.3496406E-2,3.2000935E-1,3.19E-1,5.2E1,2.49E-1,3.1E1,1.5E2,2.69E-1,4.2119008E-1,-3.521157E-1,8.2E1,5E0,3.85E-1,-3.1936446E-1,2.78E-1,-2.5049186E-1,7E1,-2.761974E-1,1.4E1,4.91E-1,-1.7080083E-1,3E0,-1.738223E-1,-2.210106E-1,5.870263E-2,-2.674475E-1,-6.0907148E-2,3.2272774E-1,-1.0999166E-1,8.908177E-2,-2.0762892E-1,-4.3986708E-2,1.3295895E-1,2.0987406E-1,-2.0275809E-1,1.2278493E-1,2.9358312E-1,5.4299604E-2,3.6251608E-1],"split_indices":[1,7,7,1,5,4,0,3,2,5,1,6,0,6,0,0,6,7,6,3,1,6,0,0,4,0,6,0,6,0,2,0,4,6,0,0,0,0,0,0,0,0,0,0,0,0,0,0,0,0,0,0,0],"split_type":[0,0,0,0,0,0,0,0,0,0,0,0,0,0,0,0,0,0,0,0,0,0,0,0,0,0,0,0,0,0,0,0,0,0,0,0,0,0,0,0,0,0,0,0,0,0,0,0,0,0,0,0,0],"sum_hessian":[1.25717316E2,1.03085304E2,2.263201E1,5.6112267E1,4.697304E1,2.1496836E1,1.1351736E0,2.2152758E1,3.3959507E1,1.0607194E1,3.636585E1,2.0283411E1,1.2134254E0,2.0569187E1,1.583571E0,1.7354223E0,3.2224087E1,6.6362343E0,3.9709601E0,4.983257E0,3.1382591E1,6.9582148E0,1.3325196E1,1.8228765E1,2.3404214E0,1.4006589E1,1.8217497E1,4.4564056E0,2.179829E0,1.2397281E0,2.731232E0,2.6599288E0,2.323328E0,3.0186773E1,1.1958172E0,5.758356E0,1.1998584E0,1.2369869E0,1.1034347E0,1.228564E1,1.7209487E0,2.3365464E0,1.5880951E1,1.0041018E0,1.1757271E0,1.1736205E0,1.5576115E0,1.2489253E0,1.0744027E0,1.9725523E1,1.046125E1,1.3996612E0,4.358695E0],"tree_param":{"num_deleted":"0","num_feature":"8","num_nodes":"53","size_leaf_vector":"1"}},{"base_weights":[-2.9706057E-2,-5.9497464E-1,2.9781684E-1,-7.661214E-1,1.23680204E-1,1.06207676E-1,1.0431466E0,-8.7345874E-1,1.7400007E-1,-3.0624044E-1,5.8633536E-1,-3.645286E-1,3.3824518E-1,1.1255941E0,6.0446574E-3,-9.7834986E-1,1.1822302E-2,-3.071447E-1,2.510336E-1,-3.090201E-1,1.1481711E0,-9.256661E-1,-1.0477203E-1,5.01992E-1,-2.6894784E-1,6.273188E-1,3.9171705E-1,-3.2692304E-1,-1.0241785E0,-1.7158458E-1,2.0641015E-1,6.846994E-2,-2.2210632E-1,-2.4108377E-1,1.3377164E-1,4.1504553E-1,1.15350775E-1,-8.1038736E-2,-3.074509E-1,1.1958196E-1,-2.3181847E-1,7.6246303E-1,1.584657E-1,-5.725653E-1,2.964084E-1,-2.750107E-2,8.8989675E-1,-1.9343092E-1,4.948858E-2,-3.3321008E-1,-1.6020775E-1,-8.660079E-2,2.4960475E-1,2.714577E-1,-8.133636E-3,-1.1756831E-2,2.8463835E-1,-2.8458223E-1,9.340287E-2,3.0426183E-1,8.5027926E-2],"categories":[],"categories_nodes":[],"categories_segments":[],"categories_sizes":[],"default_left":[0,0,0,0,0,0,0,0,0,0,0,0,0,0,0,0,0,0,0,0,0,0,0,0,0,0,0,0,0,0,0,0,0,0,0,0,0,0,0,0,0,0,0,0,0,0,0,0,0,0,0,0,0,0,0,0,0,0,0,0,0],"id":3,"left_children":[1,3,5,7,9,11,13,15,17,-1,19,21,23,25,-1,27,29,31,-1,33,35,37,39,41,43,45,-1,47,49,-1,-1,-1,-1,-1,-1,-1,-1,-1,-1,51,-1,53,55,57,-1,-1,59,-1,-1,-1,-1,-1,-1,-1,-1,-1,-1,-1,-1,-1,-1],"loss_changes":[2.194795E1,5.4416656E0,1.0617155E1,3.7090492E0,5.481904E0,6.772079E0,1.2634754E0,2.9648056E0,1.6748327E0,0E0,3.978129E0,2.902609E0,4.2404346E0,4.458351E-1,0E0,5.1441574E-1,2.1134977E0,9.360883E-1,0E0,1.6894572E0,3.014598E-1,1.3820028E-1,2.3694863E0,2.8203297E0,4.16128E0,1.1514101E0,0E0,6.283304E-1,5.140686E-1,0E0,0E0,0E0,0E0,0E0,0E0,0E0,0E0,0E0,0E0,3.8003225E0,0E0,2.0969467E0,2.4486914E0,3.0280676E0,0E0,0E0,3.252101E-2,0E0,0E0,0E0,0E0,0E0,0E0,0E0,0E0,0E0,0E0,0E0,0E0,0E0,0E0],"parents":[2147483647,0,0,1,1,2,2,3,3,4,4,5,5,6,6,7,7,8,8,10,10,11,11,12,12,13,13,15,15,16,16,17,17,19,19,20,20,21,21,22,22,23,23,24,24,25,25,27,27,28,28,39,39,41,41,42,42,43,43,46,46],"right_children":[2,4,6,8,10,12,14,16,18,-1,20,22,24,26,-1,28,30,32,-1,34,36,38,40,42,44,46,-1,48,50,-1,-1,-1,-1,-1,-1,-1,-1,-1,-1,52,-1,54,56,58,-1,-1,60,-1,-1,-1,-1,-1,-1,-1,-1,-1,-1,-1,-1,-1,-1],"split_conditions":[1.12E2,7E0,1.66E2,4.1E1,2.38E-1,3.01E1,1.441E0,4.1E1,3.45E1,-3.0624044E-1,1E2,2.7E1,1.96E2,1.7E1,6.0446574E-3,7.9E1,9.4E1,3E1,2.510336E-1,2.7E1,1E1,5.5E1,5.5E1,7.8E1,4.2E1,7.2E1,3.9171705E-1,2.81E1,6.74E-1,-1.7158458E-1,2.0641015E-1,6.846994E-2,-2.2210632E-1,-2.4108377E-1,1.3377164E-1,4.1504553E-1,1.15350775E-1,-8.1038736E-2,-3.074509E-1,4.1E1,-2.3181847E-1,3.7E1,9.4E1,4.2E1,2.964084E-1,-2.750107E-2,4.4E1,-1.9343092E-1,4.948858E-2,-3.3321008E-1,-1.6020775E-1,-8.660079E-2,2.4960475E-1,2.714577E-1,-8.133636E-3,-1.1756831E-2,2.8463835E-1,-2.8458223E-1,9.340287E-2,3.0426183E-1,8.5027926E-2],"split_indices":[1,0,1,7,6,5,6,3,5,0,1,7,4,3,0,1,4,5,0,3,0,2,7,2,7,2,0,5,6,0,0,0,0,0,0,0,0,0,0,7,0,3,2,5,0,0,7,0,0,0,0,0,0,0,0,0,0,0,0,0,0],"split_type":[0,0,0,0,0,0,0,0,0,0,0,0,0,0,0,0,0,0,0,0,0,0,0,0,0,0,0,0,0,0,0,0,0,0,0,0,0,0,0,0,0,0,0,0,0,0,0,0,0,0,0,0,0,0,0,0,0,0,0,0,0],"sum_hessian":[1.165918E2,4.247244E1,7.4119354E1,3.4249836E1,8.222604E0,5.9870388E1,1.4248966E1,3.0803757E1,3.4460778E0,2.019793E0,6.2028112E0,1.957911E1,4.029128E1,1.3093425E1,1.1555417E0,2.7446653E1,3.357103E0,2.3075151E0,1.1385627E0,2.5650556E0,3.6377554E0,5.384242E0,1.4194867E1,3.1869911E1,8.421368E0,4.666769E0,8.426656E0,2.338587E0,2.5108067E1,1.8844508E0,1.4726523E0,1.2436817E0,1.0638335E0,1.5107738E0,1.0542817E0,2.160421E0,1.4773346E0,1.1968293E0,4.1874127E0,1.12404E1,2.954467E0,1.7432554E1,1.4437359E1,7.2215266E0,1.199841E0,1.4225197E0,3.2442493E0,1.2318046E0,1.1067824E0,2.0264881E1,4.843186E0,7.523796E0,3.7166042E0,1.4645334E1,2.7872193E0,1.2309309E1,2.1280499E0,5.014855E0,2.2066717E0,2.1344397E0,1.1098098E0],"tree_param":{"num_deleted":"0","num_feature":"8","num_nodes":"61","size_leaf_vector":"1"}},{"base_weights":[-2.3908265E-2,-3.3921382E-1,3.9420637E-1,-8.989687E-1,-1.7069523E-1,1.9231728E-1,9.006262E-1,-9.801991E-1,-9.8877095E-2,-7.482489E-1,1.0616281E-2,-8.684407E-2,5.2429736E-1,9.8377264E-1,5.076026E-3,-3.1427297E-1,-9.23324E-2,7.800397E-2,-9.1276294E-1,4.3816236E-1,-1.54326E-1,3.908756E-2,-2.9216847E-1,7.154981E-1,-2.9335636E-1,1.0351354E0,7.612341E-2,-3.0785292E-1,-4.4104615E-1,-7.767978E-2,9.4442624E-1,-3.689633E-1,2.4194294E-1,-5.658423E-1,2.4598168E-1,9.2097884E-1,7.1215354E-2,7.8343965E-2,-2.4229111E-1,4.7271043E-1,3.5549763E-1,-2.1262424E-1,1.1977714E-2,9.974824E-2,-2.0485225E-1,-1.0446241E-1,4.4349512E-1,-4.4656307E-2,-2.520451E-1,1.433698E-1,-2.521852E-1,1.1923208E-1,-2.9660758E-1,-4.0425405E-2,2.0538726E-1,1.0306337E-1,3.5225737E-1,-1.2174813E-1,2.3245557E-1,-2.7511286E-2,2.6636317E-1],"categories":[],"categories_nodes":[],"categories_segments":[],"categories_sizes":[],"default_left":[0,0,0,0,0,0,0,0,0,0,0,0,0,0,0,0,0,0,0,0,0,0,0,0,0,0,0,0,0,0,0,0,0,0,0,0,0,0,0,0,0,0,0,0,0,0,0,0,0,0,0,0,0,0,0,0,0,0,0,0,0],"id":4,"left_children":[1,3,5,7,9,11,13,15,-1,17,19,21,23,25,-1,-1,-1,-1,27,29,31,33,-1,35,37,39,-1,-1,41,43,45,47,49,51,53,55,57,-1,-1,59,-1,-1,-1,-1,-1,-1,-1,-1,-1,-1,-1,-1,-1,-1,-1,-1,-1,-1,-1,-1,-1],"loss_changes":[1.450563E1,5.759655E0,4.665784E0,3.3697128E-1,5.1825514E0,3.2994459E0,9.5463085E-1,2.204628E-1,0E0,2.19803E0,2.78933E0,2.2644541E0,2.7394404E0,1.8971348E-1,0E0,0E0,0E0,0E0,1.0294342E-1,2.9472892E0,2.5209506E0,2.443838E0,0E0,1.7089963E0,1.287636E0,3.6246872E-1,0E0,0E0,5.1325345E-1,1.8094099E0,4.400142E0,1.8393633E0,3.1218235E0,2.4278808E0,2.5001922E0,1.0703468E0,1.7662477E0,0E0,0E0,1.0109322E0,0E0,0E0,0E0,0E0,0E0,0E0,0E0,0E0,0E0,0E0,0E0,0E0,0E0,0E0,0E0,0E0,0E0,0E0,0E0,0E0,0E0],"parents":[2147483647,0,0,1,1,2,2,3,3,4,4,5,5,6,6,7,7,9,9,10,10,11,11,12,12,13,13,18,18,19,19,20,20,21,21,23,23,24,24,25,25,28,28,29,29,30,30,31,31,32,32,33,33,34,34,35,35,36,36,39,39],"right_children":[2,4,6,8,10,12,14,16,-1,18,20,22,24,26,-1,-1,-1,-1,28,30,32,34,-1,36,38,40,-1,-1,42,44,46,48,50,52,54,56,58,-1,-1,60,-1,-1,-1,-1,-1,-1,-1,-1,-1,-1,-1,-1,-1,-1,-1,-1,-1,-1,-1,-1,-1],"split_conditions":[1.28E2,2.7E1,1.67E2,7E0,2.5E1,3.4E1,1.441E0,6.74E-1,-9.8877095E-2,8E0,6.8E1,3.31E1,2.55E2,9E0,5.076026E-3,-3.1427297E-1,-9.23324E-2,7.800397E-2,5.29E-1,4E0,4.97E-1,2.5E1,-2.9216847E-1,6.54E-1,8.2E1,7E1,7.612341E-2,-3.0785292E-1,3.1E1,3.3E1,1E2,3.3E1,8.8E1,8E0,3E1,3.05E-1,1.42E2,7.8343965E-2,-2.4229111E-1,3.5E1,3.5549763E-1,-2.1262424E-1,1.1977714E-2,9.974824E-2,-2.0485225E-1,-1.0446241E-1,4.4349512E-1,-4.4656307E-2,-2.520451E-1,1.433698E-1,-2.521852E-1,1.1923208E-1,-2.9660758E-1,-4.0425405E-2,2.0538726E-1,1.0306337E-1,3.5225737E-1,-1.2174813E-1,2.3245557E-1,-2.7511286E-2,2.6636317E-1],"split_indices":[1,5,1,0,7,5,6,6,0,3,2,5,4,0,0,0,0,0,6,0,6,7,0,6,2,2,0,0,3,3,1,3,2,3,5,6,4,0,0,7,0,0,0,0,0,0,0,0,0,0,0,0,0,0,0,0,0,0,0,0,0],"split_type":[0,0,0,0,0,0,0,0,0,0,0,0,0,0,0,0,0,0,0,0,0,0,0,0,0,0,0,0,0,0,0,0,0,0,0,0,0,0,0,0,0,0,0,0,0,0,0,0,0,0,0,0,0,0,0,0,0,0,0,0,0],"sum_hessian":[1.0801531E2,6.1685898E1,4.6329414E1,1.3270799E1,4.84151E1,3.411064E1,1.2218774E1,1.0982461E1,2.288338E0,1.082047E1,3.759463E1,1.8930462E1,1.518018E1,1.1064498E1,1.154276E0,9.475136E0,1.5073253E0,1.436438E0,9.384032E0,1.0004794E1,2.7589836E1,1.7414165E1,1.5162957E0,1.2404451E1,2.7757277E0,9.946733E0,1.1177644E0,6.617581E0,2.7664514E0,5.3748336E0,4.6299605E0,1.7941051E1,9.648784E0,3.9958668E0,1.34183E1,9.079324E0,3.3251283E0,1.5724765E0,1.2032512E0,2.9667358E0,6.979997E0,1.4730189E0,1.2934325E0,3.472063E0,1.9027706E0,1.4549901E0,3.1749701E0,1.3125539E1,4.8155136E0,8.380668E0,1.2681154E0,1.2372993E0,2.7585676E0,7.5542016E0,5.864098E0,3.4861443E0,5.593179E0,2.2338767E0,1.0912516E0,1.5875684E0,1.3791673E0],"tree_param":{"num_deleted":"0","num_feature":"8","num_nodes":"61","size_leaf_vector":"1"}},{"base_weights":[-2.5245054E-2,-1.7203379E-1,6.284582E-1,-7.8846425E-1,-5.1387157E-2,6.898949E-1,-5.6218762E-2,-8.8137704E-1,-3.626675E-2,-5.1191396E-1,7.485003E-2,7.565419E-1,-4.170883E-2,-9.320603E-1,-5.1253654E-2,3.070854E-1,-7.076551E-1,3.356643E-2,3.4246343E-1,3.4092325E-1,9.5605916E-1,-3.004251E-1,-8.829097E-2,-3.158174E-2,1.6174746E-1,-3.058497E-1,-1.9364987E-1,-1.0623447E-1,3.9344293E-1,6.5601695E-1,-1.09875984E-1,1.0216253E0,7.340509E-2,-1.7137137E-1,5.633956E-2,9.329089E-2,-9.481195E-2,2.368878E-2,3.2474017E-1,2.6547915E-1,-3.315236E-2,1.5087438E-1,3.4728724E-1],"categories":[],"categories_nodes":[],"categories_segments":[],"categories_sizes":[],"default_left":[0,0,0,0,0,0,0,0,0,0,0,0,0,0,0,0,0,0,0,0,0,0,0,0,0,0,0,0,0,0,0,0,0,0,0,0,0,0,0,0,0,0,0],"id":5,"left_children":[1,3,5,7,9,11,-1,13,-1,15,17,19,-1,21,-1,23,25,27,-1,29,31,-1,-1,-1,-1,-1,33,35,37,39,-1,41,-1,-1,-1,-1,-1,-1,-1,-1,-1,-1,-1],"loss_changes":[9.848973E0,6.1830654E0,1.0730958E0,7.387352E-1,4.169195E0,1.0843878E0,0E0,2.658434E-1,0E0,2.688457E0,2.4559941E0,1.0473404E0,0E0,1.8270779E-1,0E0,4.0804514E-1,1.8452711E0,2.8371353E0,0E0,1.7835009E0,2.4607468E-1,0E0,0E0,0E0,0E0,0E0,9.781709E-1,3.6698756E0,3.3289587E0,1.0013232E0,0E0,8.253479E-2,0E0,0E0,0E0,0E0,0E0,0E0,0E0,0E0,0E0,0E0,0E0],"parents":[2147483647,0,0,1,1,2,2,3,3,4,4,5,5,7,7,9,9,10,10,11,11,13,13,15,15,16,16,17,17,19,19,20,20,26,26,27,27,28,28,29,29,31,31],"right_children":[2,4,6,8,10,12,-1,14,-1,16,18,20,-1,22,-1,24,26,28,-1,30,32,-1,-1,-1,-1,-1,34,36,38,40,-1,42,-1,-1,-1,-1,-1,-1,-1,-1,-1,-1,-1],"split_conditions":[1.55E2,2.64E1,6.1E1,5.2E1,2.5E1,5.43E2,-5.6218762E-2,1.32E2,-3.626675E-2,8E0,4.79E1,3E-1,-4.170883E-2,6.74E-1,-5.1253654E-2,3.25E1,3.2E1,4.3E1,3.4246343E-1,2.59E-1,9E1,-3.004251E-1,-8.829097E-2,-3.158174E-2,1.6174746E-1,-3.058497E-1,1.13E2,6.8E1,1.1E2,9E0,-1.09875984E-1,7E1,7.340509E-2,-1.7137137E-1,5.633956E-2,9.329089E-2,-9.481195E-2,2.368878E-2,3.2474017E-1,2.6547915E-1,-3.315236E-2,1.5087438E-1,3.4728724E-1],"split_indices":[1,5,7,7,7,4,0,1,0,3,5,6,0,6,0,5,3,7,0,6,2,0,0,0,0,0,1,2,4,0,0,2,0,0,0,0,0,0,0,0,0,0,0],"split_type":[0,0,0,0,0,0,0,0,0,0,0,0,0,0,0,0,0,0,0,0,0,0,0,0,0,0,0,0,0,0,0,0,0,0,0,0,0,0,0,0,0,0,0],"sum_hessian":[1.0051351E2,8.2683754E1,1.7829763E1,1.2627849E1,7.00559E1,1.672472E1,1.1050426E0,1.0803901E1,1.8239483E0,1.4414625E1,5.5641277E1,1.5560916E1,1.1638039E0,9.793534E0,1.0103664E0,2.670821E0,1.1743804E1,5.4561104E1,1.0801756E0,5.9257016E0,9.635215E0,8.318655E0,1.474879E0,1.1585809E0,1.5122399E0,6.6972075E0,5.046597E0,3.9803482E1,1.475762E1,4.1492715E0,1.7764302E0,8.422777E0,1.2124369E0,2.2860918E0,2.7605052E0,1.315741E1,2.6646072E1,1.0898151E1,3.8594687E0,3.0761466E0,1.073125E0,2.7254868E0,5.697291E0],"tree_param":{"num_deleted":"0","num_feature":"8","num_nodes":"43","size_leaf_vector":"1"}},{"base_weights":[-1.6271656E-2,-3.8672873E-1,1.7059425E-1,-7.803566E-1,-1.7028624E-1,6.5489635E-2,6.776459E-1,-8.794899E-1,-4.408246E-2,-3.550592E-1,6.254349E-1,-2.2940066E-1,2.0149817E-1,1.5569018E-1,2.7284807E-1,-5.6881513E-2,-2.8225002E-1,-6.783387E-1,1.74212E-2,-8.351347E-2,3.0893287E-1,-7.0065975E-1,-6.1982535E-2,8.813956E-1,1.13365375E-1,4.8161018E-1,-1.2711515E-1,-8.099909E-1,-1.1775111E-2,2.3862469E-1,-2.2861698E-1,-4.5126908E-2,-2.472535E-1,1.518057E-1,-6.897253E-1,3.3989203E-1,2.8026404E-2,-6.446368E-2,3.8315338E-1,-5.992174E-3,2.284043E-1,-7.794354E-2,-2.9185E-1,1.8567589E-1,-7.353772E-2,-5.3014163E-2,1.9631661E-1,-5.7548713E-2,-2.4729007E-1,-7.0251904E-2,1.1906362E-1,3.2405424E-1,4.6599098E-2],"categories":[],"categories_nodes":[],"categories_segments":[],"categories_sizes":[],"default_left":[0,0,0,0,0,0,0,0,0,0,0,0,0,0,0,0,0,0,0,0,0,0,0,0,0,0,0,0,0,0,0,0,0,0,0,0,0,0,0,0,0,0,0,0,0,0,0,0,0,0,0,0,0],"id":6,"left_children":[1,3,5,7,9,11,13,15,-1,17,19,21,23,25,-1,-1,-1,27,29,-1,-1,31,33,35,37,39,-1,41,-1,43,-1,-1,-1,45,47,-1,-1,49,51,-1,-1,-1,-1,-1,-1,-1,-1,-1,-1,-1,-1,-1,-1],"loss_changes":[6.6998625E0,2.6306796E0,3.3873312E0,5.7586193E-1,3.4872665E0,2.2298307E0,1.1833816E0,2.240262E-1,0E0,2.2588682E0,1.9484388E0,1.349282E0,2.1645968E0,1.0678451E0,0E0,0E0,0E0,8.1086636E-1,1.8449675E0,0E0,0E0,1.839149E-1,1.9999368E0,7.245779E-1,1.6847938E0,4.916293E-1,0E0,4.867077E-1,0E0,1.6740348E0,0E0,0E0,0E0,1.9902761E0,9.4350815E-2,0E0,0E0,1.7928301E0,2.0380707E0,0E0,0E0,0E0,0E0,0E0,0E0,0E0,0E0,0E0,0E0,0E0,0E0,0E0,0E0],"parents":[2147483647,0,0,1,1,2,2,3,3,4,4,5,5,6,6,7,7,9,9,10,10,11,11,12,12,13,13,17,17,18,18,21,21,22,22,23,23,24,24,25,25,27,27,29,29,33,33,34,34,37,37,38,38],"right_children":[2,4,6,8,10,12,14,16,-1,18,20,22,24,26,-1,-1,-1,28,30,-1,-1,32,34,36,38,40,-1,42,-1,44,-1,-1,-1,46,48,-1,-1,50,52,-1,-1,-1,-1,-1,-1,-1,-1,-1,-1,-1,-1,-1,-1],"split_conditions":[1.12E2,2E0,1.67E2,3.7E1,3.79E1,3.01E1,1.7E1,5.2E1,-4.408246E-2,1E2,3.25E-1,2.7E1,1.16E2,5.39E-1,2.7284807E-1,-5.6881513E-2,-2.8225002E-1,4.3E1,1.1E2,-8.351347E-2,3.0893287E-1,5.8E1,5.5E1,1.4E1,5.14E-1,3.8E1,-1.2711515E-1,2.49E-1,-1.1775111E-2,2.6E1,-2.2861698E-1,-4.5126908E-2,-2.472535E-1,4.1E1,6.1E1,3.3989203E-1,2.8026404E-2,4.3E1,5.61E-1,-5.992174E-3,2.284043E-1,-7.794354E-2,-2.9185E-1,1.8567589E-1,-7.353772E-2,-5.3014163E-2,1.9631661E-1,-5.7548713E-2,-2.4729007E-1,-7.0251904E-2,1.1906362E-1,3.2405424E-1,4.6599098E-2],"split_indices":[1,0,1,7,5,5,3,2,0,1,6,7,1,6,0,0,0,7,1,0,0,2,7,4,6,7,0,6,0,3,0,0,0,7,7,0,0,7,6,0,0,0,0,0,0,0,0,0,0,0,0,0,0],"split_type":[0,0,0,0,0,0,0,0,0,0,0,0,0,0,0,0,0,0,0,0,0,0,0,0,0,0,0,0,0,0,0,0,0,0,0,0,0,0,0,0,0,0,0,0,0,0,0,0,0,0,0,0,0],"sum_hessian":[9.482972E1,3.1437029E1,6.3392693E1,1.0228976E1,2.1208054E1,5.344372E1,9.948968E0,8.508807E0,1.7201693E0,1.7660849E1,3.5472045E0,1.6652193E1,3.679153E1,3.574119E0,6.3748493E0,1.0288595E0,7.4799476E0,9.015268E0,8.64558E0,1.1927067E0,2.354498E0,3.530167E0,1.31220255E1,3.1890385E0,3.3602493E1,2.3954518E0,1.1786673E0,7.2536087E0,1.7616594E0,7.274935E0,1.3706456E0,1.0537696E0,2.4763973E0,1.0353978E1,2.768047E0,2.085399E0,1.1036396E0,2.0711618E1,1.2890874E1,1.1901132E0,1.2053385E0,2.2493706E0,5.004238E0,3.9165578E0,3.3583767E0,6.653333E0,3.700645E0,1.1050524E0,1.6629949E0,1.550161E1,5.210009E0,2.2538571E0,1.0637016E1],"tree_param":{"num_deleted":"0","num_feature":"8","num_nodes":"53","size_leaf_vector":"1"}},{"base_weights":[-1.4615265E-2,-3.9406034E-1,1.1927342E-1,-8.575473E-1,-1.5792218E-1,3.1431764E-2,6.22858E-1,-2.829968E-1,-5.5365156E-2,-3.3451524E-1,3.1926394E-1,8.041122E-2,-2.9550895E-1,7.946582E-1,-7.192221E-2,-4.6162617E-1,1.282527E-1,-1.0482335E-1,5.9746844E-1,-2.5907062E-2,4.4010067E-1,3.2756594E-1,2.735688E-1,-1.0145027E-1,-6.044167E-1,2.860463E-1,-7.3498082E-3,6.6281535E-2,-7.4399287E-1,6.8792338E-3,5.756935E-1,-1.5102139E-1,2.2088699E-1,-1.4649759E-1,1.3497211E-1,-2.2734155E-1,4.5392405E-2,-3.3927012E-2,1.3117784E-1,-2.9391724E-1,1.6542044E-2,1.4995956E-1,-1.1335079E-1,8.118675E-2,2.3360787E-1,1.8870015E-2,-9.1049835E-2],"categories":[],"categories_nodes":[],"categories_segments":[],"categories_sizes":[],"default_left":[0,0,0,0,0,0,0,0,0,0,0,0,0,0,0,0,0,0,0,0,0,0,0,0,0,0,0,0,0,0,0,0,0,0,0,0,0,0,0,0,0,0,0,0,0,0,0],"id":7,"left_children":[1,3,5,7,9,11,13,-1,-1,15,17,19,-1,21,-1,23,-1,-1,25,27,29,-1,31,33,35,-1,-1,37,39,41,43,45,-1,-1,-1,-1,-1,-1,-1,-1,-1,-1,-1,-1,-1,-1,-1],"loss_changes":[4.648363E0,2.4754853E0,2.9759064E0,2.7767706E-1,1.5418352E0,3.0022268E0,1.6731172E0,0E0,0E0,1.4486042E0,1.1596498E0,2.1887789E0,0E0,1.0293503E0,0E0,5.3279924E-1,0E0,0E0,9.043747E-1,3.0211172E0,7.62367E-1,0E0,9.852301E-1,1.175588E0,1.0502169E0,0E0,0E0,2.757906E0,1.0315928E0,9.706239E-1,4.038415E-1,1.2183033E-1,0E0,0E0,0E0,0E0,0E0,0E0,0E0,0E0,0E0,0E0,0E0,0E0,0E0,0E0,0E0],"parents":[2147483647,0,0,1,1,2,2,3,3,4,4,5,5,6,6,9,9,10,10,11,11,13,13,15,15,18,18,19,19,20,20,22,22,23,23,24,24,27,27,28,28,29,29,30,30,31,31],"right_children":[2,4,6,8,10,12,14,-1,-1,16,18,20,-1,22,-1,24,-1,-1,26,28,30,-1,32,34,36,-1,-1,38,40,42,44,46,-1,-1,-1,-1,-1,-1,-1,-1,-1,-1,-1,-1,-1,-1,-1],"split_conditions":[1.07E2,2.6E1,4.09E1,1.08E2,3.82E1,4E1,2.55E2,-2.829968E-1,-5.5365156E-2,1.55E2,3.1E1,1.55E2,-2.9550895E-1,3E0,-7.192221E-2,6.8E1,1.282527E-1,-1.0482335E-1,1.4E1,1.91E2,2.78E1,3.2756594E-1,7E0,3.09E1,5.1E1,2.860463E-1,-7.3498082E-3,5.14E-1,4E1,2.56E1,7.2E1,4.82E-1,2.2088699E-1,-1.4649759E-1,1.3497211E-1,-2.2734155E-1,4.5392405E-2,-3.3927012E-2,1.3117784E-1,-2.9391724E-1,1.6542044E-2,1.4995956E-1,-1.1335079E-1,8.118675E-2,2.3360787E-1,1.8870015E-2,-9.1049835E-2],"split_indices":[1,7,5,4,5,5,4,0,0,4,3,1,0,0,0,2,0,0,4,4,5,0,0,5,7,0,0,6,7,5,2,6,0,0,0,0,0,0,0,0,0,0,0,0,0,0,0],"split_type":[0,0,0,0,0,0,0,0,0,0,0,0,0,0,0,0,0,0,0,0,0,0,0,0,0,0,0,0,0,0,0,0,0,0,0,0,0,0,0,0,0,0,0,0,0,0,0],"sum_hessian":[8.957192E1,2.285549E1,6.671643E1,6.8260055E0,1.6029486E1,5.7711987E1,9.004446E0,5.698093E0,1.1279128E0,1.1917967E1,4.1115184E0,5.593746E1,1.7745245E0,7.574606E0,1.4298404E0,1.0552026E1,1.3659405E0,1.1328118E0,2.9787066E0,4.3891754E1,1.2045707E1,4.125842E0,3.4487636E0,3.4812872E0,7.070739E0,1.5553783E0,1.4233282E0,3.9702415E1,4.18934E0,3.1219037E0,8.923803E0,2.1497703E0,1.2989935E0,2.1129792E0,1.3683082E0,5.875454E0,1.1952851E0,2.7231073E1,1.2471342E1,3.0605454E0,1.1287948E0,1.237202E0,1.8847016E0,4.497701E0,4.426102E0,1.1391139E0,1.0106562E0],"tree_param":{"num_deleted":"0","num_feature":"8","num_nodes":"47","size_leaf_vector":"1"}},{"base_weights":[-1.2510932E-2,-3.274304E-1,1.11401744E-1,-6.3185656E-1,3.6816623E-2,6.7454815E-1,5.2364614E-2,-7.062867E-1,-1.1227425E-2,2.7370477E-1,-5.585032E-1,2.6870918E-1,4.528463E-2,-1.8823788E-1,2.3253244E-1,-8.323184E-1,-1.1376637E-1,4.913439E-1,-2.0862E-1,-2.3604742E-1,-2.64617E-2,-2.9213136E-1,5.8159316E-1,2.9605952E-1,-2.4700578E-1,-9.0568624E-2,-9.064836E-1,-1.7589666E-1,1.0835766E-1,9.059748E-1,8.163706E-2,-1.8527862E-1,-2.7828115E-1,4.9875062E-2,2.0769219E-1,-1.9382258E-1,3.982206E-1,-2.8823918E-1,-7.951565E-2,3.323283E-1,5.113271E-2,-9.870727E-2,1.3799396E-1,-9.637398E-2,9.9796124E-2,7.797144E-2,-3.215321E-1,2.9773536E-1,8.6912975E-2],"categories":[],"categories_nodes":[],"categories_segments":[],"categories_sizes":[],"default_left":[0,0,0,0,0,0,0,0,0,0,0,0,0,0,0,0,0,0,0,0,0,0,0,0,0,0,0,0,0,0,0,0,0,0,0,0,0,0,0,0,0,0,0,0,0,0,0,0,0],"id":8,"left_children":[1,3,5,7,9,11,13,15,-1,17,19,-1,-1,21,23,25,27,29,-1,-1,-1,31,33,35,-1,-1,37,-1,-1,39,41,43,-1,-1,-1,45,47,-1,-1,-1,-1,-1,-1,-1,-1,-1,-1,-1,-1],"loss_changes":[3.4078414E0,2.7565274E0,2.0507698E0,5.700722E-1,1.8687041E0,5.444608E-1,2.5526495E0,7.959027E-1,0E0,2.3189583E0,3.3780265E-1,0E0,0E0,2.196168E0,2.4936657E0,1.0697651E-1,9.412451E-1,1.3260773E0,0E0,0E0,0E0,1.3890433E0,3.880632E-2,1.697401E0,0E0,0E0,2.3684502E-2,0E0,0E0,4.0443993E-1,9.6616876E-1,1.5806844E0,0E0,0E0,0E0,2.771823E0,1.4608622E0,0E0,0E0,0E0,0E0,0E0,0E0,0E0,0E0,0E0,0E0,0E0,0E0],"parents":[2147483647,0,0,1,1,2,2,3,3,4,4,5,5,6,6,7,7,9,9,10,10,13,13,14,14,15,15,16,16,17,17,21,21,22,22,23,23,26,26,29,29,30,30,31,31,35,35,36,36],"right_children":[2,4,6,8,10,12,14,16,-1,18,20,-1,-1,22,24,26,28,30,-1,-1,-1,32,34,36,-1,-1,38,-1,-1,40,42,44,-1,-1,-1,46,48,-1,-1,-1,-1,-1,-1,-1,-1,-1,-1,-1,-1],"split_conditions":[2.97E1,1.23E2,5.4E1,4.9E1,1.35E2,2.8E1,3.1E1,7E0,-1.1227425E-2,6.1E1,7E1,2.6870918E-1,4.528463E-2,1.66E2,1.318E0,2.3E1,2.6E1,7.4E1,-2.0862E-1,-2.3604742E-1,-2.64617E-2,2.55E2,3.3E1,2.03E-1,-2.4700578E-1,-9.0568624E-2,1.22E2,-1.7589666E-1,1.0835766E-1,5E0,6E0,1.56E2,-2.7828115E-1,4.9875062E-2,2.0769219E-1,1.81E-1,2.4E-1,-2.8823918E-1,-7.951565E-2,3.323283E-1,5.113271E-2,-9.870727E-2,1.3799396E-1,-9.637398E-2,9.9796124E-2,7.797144E-2,-3.215321E-1,2.9773536E-1,8.6912975E-2],"split_indices":[5,1,2,7,4,7,7,0,0,7,2,0,0,1,6,5,5,2,0,0,0,4,3,6,0,0,4,0,0,0,0,4,0,0,0,6,6,0,0,0,0,0,0,0,0,0,0,0,0],"split_type":[0,0,0,0,0,0,0,0,0,0,0,0,0,0,0,0,0,0,0,0,0,0,0,0,0,0,0,0,0,0,0,0,0,0,0,0,0,0,0,0,0,0,0,0,0,0,0,0,0],"sum_hessian":[8.539538E1,2.3649252E1,6.1746124E1,1.2482272E1,1.1166981E1,4.86963E0,5.6876495E1,1.0926028E1,1.5562435E0,8.374758E0,2.792223E0,2.9239902E0,1.9456394E0,2.4334522E1,3.2541973E1,8.675914E0,2.250114E0,7.241477E0,1.133281E0,1.426598E0,1.365625E0,2.1987675E1,2.3468482E0,3.1373976E1,1.1679975E0,1.6862907E0,6.9896235E0,1.0103775E0,1.2397364E0,2.9970903E0,4.2443867E0,1.9928345E1,2.0593297E0,1.0204092E0,1.3264391E0,5.258971E0,2.6115004E1,5.9849486E0,1.0046749E0,1.9547554E0,1.0423348E0,2.0977736E0,2.1466134E0,1.6085358E1,3.842988E0,3.9312537E0,1.3277178E0,2.7745874E0,2.3340418E1],"tree_param":{"num_deleted":"0","num_feature":"8","num_nodes":"49","size_leaf_vector":"1"}},{"base_weights":[-1.7134346E-2,-1.7782286E-1,1.8646337E-1,-6.730238E-1,-8.81885E-2,-1.9540629E-1,2.2888704E-1,-2.3431987E-1,-2.5597575E-1,1.3882801E-1,-3.2838395E-1,7.4330163E-1,1.5189478E-1,-1.7791647E-1,7.267661E-2,2.9930586E-1,-6.311306E-1,-5.999247E-1,1.6731904E-1,8.9927185E-1,3.2764792E-2,2.9697863E-2,4.9525502E-1,-2.1553554E-1,5.420047E-1,-2.9369718E-1,3.612102E-2,-9.202154E-1,-7.574083E-2,-6.3249373E-1,6.726509E-1,3.2296243E-1,8.214697E-2,-5.0289854E-2,2.3305558E-1,1.6380206E-1,2.3412435E-1,-1.6835554E-1,6.3767195E-2,2.1656285E-1,-1.8797056E-1,-4.3701537E-2,-3.0383953E-1,-1.4398715E-1,1.8521205E-1,-4.9730487E-2,-2.2921619E-1,-5.7149656E-2,3.015212E-1,4.0652487E-2,-1.1518829E-1,-1.11166045E-1,1.3133618E-1],"categories":[],"categories_nodes":[],"categories_segments":[],"categories_sizes":[],"default_left":[0,0,0,0,0,0,0,0,0,0,0,0,0,0,0,0,0,0,0,0,0,0,0,0,0,0,0,0,0,0,0,0,0,0,0,0,0,0,0,0,0,0,0,0,0,0,0,0,0,0,0,0,0],"id":9,"left_children":[1,3,5,7,9,-1,11,13,-1,15,17,19,21,-1,-1,23,25,27,29,31,-1,33,35,37,39,-1,-1,41,43,45,47,-1,-1,49,-1,51,-1,-1,-1,-1,-1,-1,-1,-1,-1,-1,-1,-1,-1,-1,-1,-1,-1],"loss_changes":[2.75741E0,2.0291078E0,1.4719743E0,3.5831618E-1,2.2807426E0,0E0,1.3194546E0,7.308549E-1,0E0,2.879612E0,2.8213027E0,3.4201503E-1,1.3578877E0,0E0,0E0,2.4532561E0,1.1838679E0,2.1596003E0,3.6329994E0,8.599186E-2,0E0,1.5445688E0,6.777134E-1,1.111592E0,3.18326E0,0E0,0E0,4.37068E-1,2.0125751E0,9.366441E-2,1.7259552E0,0E0,0E0,1.520966E0,0E0,9.245723E-1,0E0,0E0,0E0,0E0,0E0,0E0,0E0,0E0,0E0,0E0,0E0,0E0,0E0,0E0,0E0,0E0,0E0],"parents":[2147483647,0,0,1,1,2,2,3,3,4,4,6,6,7,7,9,9,10,10,11,11,12,12,15,15,16,16,17,17,18,18,19,19,21,21,22,22,23,23,24,24,27,27,28,28,29,29,30,30,33,33,35,35],"right_children":[2,4,6,8,10,-1,12,14,-1,16,18,20,22,-1,-1,24,26,28,30,32,-1,34,36,38,40,-1,-1,42,44,46,48,-1,-1,50,-1,52,-1,-1,-1,-1,-1,-1,-1,-1,-1,-1,-1,-1,-1,-1,-1,-1,-1],"split_conditions":[1.28E2,2.65E1,2.32E1,2.3E1,1.4E1,-1.9540629E-1,5.5E1,3E0,-2.5597575E-1,8.6E1,1.44E2,6.31E-1,1.66E2,-1.7791647E-1,7.267661E-2,1.02E2,3.69E1,4.96E-1,2.9E1,2.9E1,3.2764792E-2,9.2E1,1.32E2,2.6E1,1E1,-2.9369718E-1,3.612102E-2,8.8E1,1.07E2,1.15E2,3.37E1,3.2296243E-1,8.214697E-2,1.4E2,2.3305558E-1,7.2E1,2.3412435E-1,-1.6835554E-1,6.3767195E-2,2.1656285E-1,-1.8797056E-1,-4.3701537E-2,-3.0383953E-1,-1.4398715E-1,1.8521205E-1,-4.9730487E-2,-2.2921619E-1,-5.7149656E-2,3.015212E-1,4.0652487E-2,-1.1518829E-1,-1.11166045E-1,1.3133618E-1],"split_indices":[1,5,5,5,4,0,2,0,0,2,4,6,1,0,0,1,5,6,7,7,0,2,4,3,0,0,0,1,1,1,5,0,0,4,0,2,0,0,0,0,0,0,0,0,0,0,0,0,0,0,0,0,0],"split_type":[0,0,0,0,0,0,0,0,0,0,0,0,0,0,0,0,0,0,0,0,0,0,0,0,0,0,0,0,0,0,0,0,0,0,0,0,0,0,0,0,0,0,0,0,0,0,0,0,0,0,0,0,0],"sum_hessian":[8.22702E1,4.605115E1,3.621905E1,6.0604687E0,3.999068E1,1.0538181E0,3.5165234E1,2.434544E0,3.6259248E0,2.0776323E1,1.9214357E1,3.4513316E0,3.1713903E1,1.2495521E0,1.184992E0,1.769875E1,3.077574E0,1.2278228E1,6.9361296E0,2.4343262E0,1.0170054E0,2.4191126E1,7.5227776E0,5.7061386E0,1.1992612E1,1.896904E0,1.1806699E0,7.1523967E0,5.125831E0,2.588131E0,4.347999E0,1.3347813E0,1.099545E0,2.269425E1,1.4968761E0,4.207104E0,3.3156734E0,2.9850564E0,2.721082E0,1.0724164E1,1.2684475E0,1.038424E0,6.1139727E0,3.4319136E0,1.6939174E0,1.0660852E0,1.5220456E0,1.3276366E0,3.0203624E0,1.4958688E1,7.7355623E0,1.3065233E0,2.900581E0],"tree_param":{"num_deleted":"0","num_feature":"8","num_nodes":"53","size_leaf_vector":"1"}},{"base_weights":[-2.0584505E-2,-9.113245E-2,4.0964442E-1,-4.2153236E-1,-1.5610579E-2,-8.769597E-2,5.1596016E-1,-6.324658E-1,-1.7467353E-2,2.0796053E-2,-2.932339E-1,1.205077E-1,7.812852E-1,-1.1327354E-1,-2.748667E-1,2.799073E-1,-1.4684477E-1,-1.8715432E-1,2.1465564E-1,4.8728174E-1,-1.4037591E-1,-2.9572358E-2,2.9877108E-1,-1.8552159E-1,1.8370241E-1,1.6034429E-1,-6.1254736E-2,-2.426805E-1,-8.059965E-2,-3.3657745E-2,4.1930118E-1,-1.5636401E-2,2.355556E-1,2.031207E-2,-1.9462034E-1,4.8587706E-2,-2.9868013E-1,2.5545338E-1,4.0038064E-2],"categories":[],"categories_nodes":[],"categories_segments":[],"categories_sizes":[],"default_left":[0,0,0,0,0,0,0,0,0,0,0,0,0,0,0,0,0,0,0,0,0,0,0,0,0,0,0,0,0,0,0,0,0,0,0,0,0,0,0],"id":10,"left_children":[1,3,5,7,9,-1,11,13,15,17,-1,19,21,23,-1,25,-1,27,29,31,-1,-1,-1,-1,-1,-1,-1,-1,33,35,37,-1,-1,-1,-1,-1,-1,-1,-1],"loss_changes":[2.4399107E0,1.7107522E0,9.966427E-1,1.0770366E0,2.0183372E0,0E0,9.76532E-1,1.1277435E0,8.959684E-1,2.2959452E0,0E0,1.3674945E0,1.2169402E0,1.8796899E0,0E0,5.963306E-1,0E0,1.7588408E0,1.509381E0,6.4228356E-1,0E0,0E0,0E0,0E0,0E0,0E0,0E0,0E0,2.1178577E0,2.8370225E0,1.8883996E0,0E0,0E0,0E0,0E0,0E0,0E0,0E0,0E0],"parents":[2147483647,0,0,1,1,2,2,3,3,4,4,6,6,7,7,8,8,9,9,11,11,12,12,13,13,15,15,17,17,18,18,19,19,28,28,29,29,30,30],"right_children":[2,4,6,8,10,-1,12,14,16,18,-1,20,22,24,-1,26,-1,28,30,32,-1,-1,-1,-1,-1,-1,-1,-1,34,36,38,-1,-1,-1,-1,-1,-1,-1,-1],"split_conditions":[4.09E1,2.5E1,2.07E-1,3.29E1,4E1,-8.769597E-2,2.8E1,1.5E1,2.4E1,1.24E2,-2.932339E-1,1.32E2,1.01E2,3.95E-1,-2.748667E-1,6.8E1,-1.4684477E-1,2.63E1,3.13E-1,1.19E2,-1.4037591E-1,-2.9572358E-2,2.9877108E-1,-1.8552159E-1,1.8370241E-1,1.6034429E-1,-6.1254736E-2,-2.426805E-1,1.2E2,2.87E-1,4E0,-1.5636401E-2,2.355556E-1,2.031207E-2,-1.9462034E-1,4.8587706E-2,-2.9868013E-1,2.5545338E-1,4.0038064E-2],"split_indices":[5,7,6,5,5,0,7,3,7,1,0,4,1,6,0,2,0,5,6,1,0,0,0,0,0,0,0,0,1,6,0,0,0,0,0,0,0,0,0],"split_type":[0,0,0,0,0,0,0,0,0,0,0,0,0,0,0,0,0,0,0,0,0,0,0,0,0,0,0,0,0,0,0,0,0,0,0,0,0,0,0],"sum_hessian":[7.815779E1,6.7824295E1,1.0333494E1,1.1766324E1,5.605797E1,1.1290754E0,9.204419E0,7.3593016E0,4.4070225E0,5.4956192E1,1.1017787E0,4.2798E0,4.9246187E0,3.0951908E0,4.2641106E0,2.9533658E0,1.4536567E0,2.6531174E1,2.8425018E1,2.7423506E0,1.5374494E0,1.0717045E0,3.8529143E0,1.9119501E0,1.1832407E0,1.8672956E0,1.0860701E0,2.9171176E0,2.3614056E1,1.3219832E1,1.5205185E1,1.2692342E0,1.4731163E0,1.9424332E1,4.1897235E0,1.1676899E1,1.5429336E0,5.265078E0,9.940107E0],"tree_param":{"num_deleted":"0","num_feature":"8","num_nodes":"39","size_leaf_vector":"1"}},{"base_weights":[-2.5988944E-2,-8.389993E-2,3.415878E-1,-5.6051147E-1,-3.9829098E-2,6.315878E-1,1.826885E-2,-2.4768354E-1,1.8205162E-2,-8.681983E-3,-2.1712002E-1,-1.1374163E-2,7.925177E-1,-1.8470094E-1,3.0601698E-1,-1.9866931E-1,8.571774E-2,2.8939962E-1,8.54532E-2,-5.503423E-2,4.902476E-1,-6.4522916E-1,-3.7190843E-2,-7.67645E-2,3.8016418E-1,1.2278675E-2,2.0291443E-1,-2.7442873E-1,4.2723857E-2,1.9609915E-2,-2.0631497E-1,-6.443005E-2,9.6068464E-2,1.6750024E-1,-1.09831154E-1],"categories":[],"categories_nodes":[],"categories_segments":[],"categories_sizes":[],"default_left":[0,0,0,0,0,0,0,0,0,0,0,0,0,0,0,0,0,0,0,0,0,0,0,0,0,0,0,0,0,0,0,0,0,0,0],"id":11,"left_children":[1,3,5,7,9,11,13,-1,-1,15,-1,-1,17,-1,19,21,23,-1,-1,-1,25,27,29,31,33,-1,-1,-1,-1,-1,-1,-1,-1,-1,-1],"loss_changes":[1.6472591E0,1.37431E0,9.7731197E-1,9.642998E-1,1.3131458E0,6.2584877E-1,1.2859001E0,0E0,0E0,1.0976757E0,0E0,0E0,1.1883545E-1,0E0,5.233247E-1,1.4399976E0,1.988423E0,0E0,0E0,0E0,2.8712374E-1,1.2619314E0,1.1105244E0,1.5601358E0,2.162999E0,0E0,0E0,0E0,0E0,0E0,0E0,0E0,0E0,0E0,0E0],"parents":[2147483647,0,0,1,1,2,2,3,3,4,4,5,5,6,6,9,9,12,12,14,14,15,15,16,16,20,20,21,21,22,22,23,23,24,24],"right_children":[2,4,6,8,10,12,14,-1,-1,16,-1,-1,18,-1,20,22,24,-1,-1,-1,26,28,30,32,34,-1,-1,-1,-1,-1,-1,-1,-1,-1,-1],"split_conditions":[4.09E1,9E1,4.42E1,3.1E1,4E1,1.04E2,4.54E1,-2.4768354E-1,1.8205162E-2,2.99E1,-2.1712002E-1,-1.1374163E-2,1.15E2,-1.8470094E-1,1E0,2E0,5.02E-1,2.8939962E-1,8.54532E-2,-5.503423E-2,8E1,3.3E1,6.1E1,1.43E2,1.96E2,1.2278675E-2,2.0291443E-1,-2.7442873E-1,4.2723857E-2,1.9609915E-2,-2.0631497E-1,-6.443005E-2,9.6068464E-2,1.6750024E-1,-1.09831154E-1],"split_indices":[5,1,5,3,5,1,5,0,0,5,0,0,4,0,0,0,6,0,0,0,2,7,7,1,4,0,0,0,0,0,0,0,0,0,0],"split_type":[0,0,0,0,0,0,0,0,0,0,0,0,0,0,0,0,0,0,0,0,0,0,0,0,0,0,0,0,0,0,0,0,0,0,0],"sum_hessian":[7.5037964E1,6.549164E1,9.5463295E0,4.5513935E0,6.0940243E1,4.5298457E0,5.0164833E0,2.9593828E0,1.5920107E0,5.9254314E1,1.68593E0,1.0259771E0,3.5038688E0,1.2103484E0,3.8061352E0,1.930229E1,3.9952023E1,1.9443793E0,1.5594895E0,1.0419993E0,2.7641356E0,4.330571E0,1.4971718E1,2.6221626E1,1.3730397E1,1.1669823E0,1.5971533E0,3.1062207E0,1.2243506E0,1.3709841E1,1.2618775E0,1.9798353E1,6.423274E0,1.1287389E1,2.4430087E0],"tree_param":{"num_deleted":"0","num_feature":"8","num_nodes":"35","size_leaf_vector":"1"}},{"base_weights":[-2.6091903E-2,-6.919792E-2,3.5395247E-1,-4.09362E-1,-9.196166E-3,6.6494696E-2,1.8964861E-1,6.6341676E-2,-2.468628E-1,4.5824316E-1,-8.0867805E-2,-1.0015402E-1,3.5861564E-1,4.8159042E-1,-2.4689464E-1,-1.328432E-1,8.350915E-1,-2.0288067E-1,1.5268624E-1,1.7497253E-1,-3.2340856E-3,-3.3121094E-2,7.110158E-1,3.488437E-1,1.5587471E-1,-3.342135E-1,1.20376475E-1,2.5721142E-1,-1.6059166E-2,2.966723E-1,4.6737798E-2,-1.3615789E-1,2.08706E-1,-1.2103309E-1,1.1076139E-1,1.2517515E-1,-7.299427E-2,-1.5583345E-1,2.7439013E-2],"categories":[],"categories_nodes":[],"categories_segments":[],"categories_sizes":[],"default_left":[0,0,0,0,0,0,0,0,0,0,0,0,0,0,0,0,0,0,0,0,0,0,0,0,0,0,0,0,0,0,0,0,0,0,0,0,0,0,0],"id":12,"left_children":[1,3,5,7,9,11,-1,13,-1,15,17,-1,19,21,-1,-1,23,25,27,-1,-1,-1,29,-1,31,33,35,-1,37,-1,-1,-1,-1,-1,-1,-1,-1,-1,-1],"loss_changes":[1.2273538E0,1.3592775E0,5.6922346E-1,2.019804E0,1.9731863E0,6.9004405E-1,0E0,2.4537477E0,0E0,3.0295672E0,1.4831125E0,0E0,2.8023618E-1,6.800041E-1,0E0,0E0,1.1252804E0,1.4794868E0,2.1609576E0,0E0,0E0,0E0,3.5913956E-1,0E0,1.3246088E0,1.335808E0,1.2383872E0,0E0,8.89156E-1,0E0,0E0,0E0,0E0,0E0,0E0,0E0,0E0,0E0,0E0],"parents":[2147483647,0,0,1,1,2,2,3,3,4,4,5,5,7,7,9,9,10,10,12,12,13,13,16,16,17,17,18,18,22,22,24,24,25,25,26,26,28,28],"right_children":[2,4,6,8,10,12,-1,14,-1,16,18,-1,20,22,-1,-1,24,26,28,-1,-1,-1,30,-1,32,34,36,-1,38,-1,-1,-1,-1,-1,-1,-1,-1,-1,-1],"split_conditions":[1.66E2,1.94E-1,2.6E1,8E0,2.43E-1,7.2E1,1.8964861E-1,1.81E-1,-2.468628E-1,1.11E2,3.2E1,-1.0015402E-1,4.4E1,3.04E1,-2.4689464E-1,-1.328432E-1,7.6E1,4.2E1,3.3E1,1.7497253E-1,-3.2340856E-3,-3.3121094E-2,1.22E2,3.488437E-1,4E0,9.55E-1,7.8E1,2.5721142E-1,2.84E-1,2.966723E-1,4.6737798E-2,-1.3615789E-1,2.08706E-1,-1.2103309E-1,1.1076139E-1,1.2517515E-1,-7.299427E-2,-1.5583345E-1,2.7439013E-2],"split_indices":[1,6,3,3,6,2,0,6,0,1,3,0,7,5,0,0,2,7,3,0,0,0,1,0,0,6,2,0,6,0,0,0,0,0,0,0,0,0,0],"split_type":[0,0,0,0,0,0,0,0,0,0,0,0,0,0,0,0,0,0,0,0,0,0,0,0,0,0,0,0,0,0,0,0,0,0,0,0,0,0,0],"sum_hessian":[7.242488E1,6.578161E1,6.643268E0,8.990402E0,5.6791206E1,3.8767045E0,2.766564E0,4.5712423E0,4.41916E0,6.833004E0,4.9958202E1,1.5751626E0,2.3015418E0,3.428746E0,1.1424962E0,1.9634084E0,4.8695955E0,3.2901302E1,1.7056902E1,1.0712302E0,1.2303116E0,1.1025586E0,2.3261874E0,2.804459E0,2.0651364E0,2.3371883E1,9.529417E0,2.5069518E0,1.4549951E1,1.029712E0,1.2964754E0,1.0445318E0,1.0206046E0,2.1665981E1,1.7059038E0,5.165581E0,4.3638353E0,1.8865771E0,1.2663374E1],"tree_param":{"num_deleted":"0","num_feature":"8","num_nodes":"39","size_leaf_vector":"1"}},{"base_weights":[-1.2474211E-2,-1.7011096E-1,1.5089318E-2,5.323754E-1,-1.5002497E-2,2.2072087E-1,2.1883737E-2,-3.101059E-1,4.4944122E-2,-2.1537797E-1,-1.076034E-1,7.5703904E-2,-1.6857958E-1,-3.3438402E-1,1.3541347E-1,-1.1003125E-1,2.0585568E-1,-1.9000745E-1,1.5389869E-2,-1.9117041E-1,-5.788841E-3,1.9336797E-1,1.7958384E-2],"categories":[],"categories_nodes":[],"categories_segments":[],"categories_sizes":[],"default_left":[0,0,0,0,0,0,0,0,0,0,0,0,0,0,0,0,0,0,0,0,0,0,0],"id":13,"left_children":[1,-1,3,5,7,-1,-1,9,11,-1,13,15,-1,17,-1,19,21,-1,-1,-1,-1,-1,-1],"loss_changes":[1.0931695E0,0E0,1.0753593E0,3.0108774E-1,1.1774985E0,0E0,0E0,8.503201E-1,1.0793569E0,0E0,1.2514439E0,1.3218344E0,0E0,8.1086415E-1,0E0,1.0781273E0,2.0076618E0,0E0,0E0,0E0,0E0,0E0,0E0],"parents":[2147483647,0,0,2,2,3,3,4,4,7,7,8,8,10,10,11,11,13,13,15,15,16,16],"right_children":[2,-1,4,6,8,-1,-1,10,12,-1,14,16,-1,18,-1,20,22,-1,-1,-1,-1,-1,-1],"split_conditions":[2.29E1,-1.7011096E-1,4.4E1,3E1,1.01E2,2.2072087E-1,2.1883737E-2,2E0,1.391E0,-2.1537797E-1,8.7E1,3.1E1,-1.6857958E-1,2.7E1,1.3541347E-1,1.9E-1,4E0,-1.9000745E-1,1.5389869E-2,-1.9117041E-1,-5.788841E-3,1.9336797E-1,1.7958384E-2],"split_indices":[5,0,2,7,1,0,0,0,6,0,4,7,0,3,0,6,0,0,0,0,0,0,0],"split_type":[0,0,0,0,0,0,0,0,0,0,0,0,0,0,0,0,0,0,0,0,0,0,0],"sum_hessian":[6.99561E1,2.3856766E0,6.757042E1,2.7970314E0,6.477339E1,1.5219479E0,1.2750834E0,1.023176E1,5.454163E1,2.5503423E0,7.681418E0,5.2743557E1,1.7980742E0,5.750301E0,1.9311174E0,2.1795103E1,3.0948454E1,2.8775284E0,2.8727722E0,2.3158963E0,1.9479206E1,6.874885E0,2.4073568E1],"tree_param":{"num_deleted":"0","num_feature":"8","num_nodes":"23","size_leaf_vector":"1"}},{"base_weights":[-1.4984251E-2,-6.1770555E-2,2.8995508E-1,3.5172917E-2,-2.3980643E-1,5.485789E-1,-1.0908295E-2,2.5082147E-1,-1.8794295E-1,-4.3816218E-1,2.838743E-1,2.4930142E-1,1.06330685E-1,-2.995058E-1,1.3388771E-1,3.5097456E-1,-4.3019888E-1,-6.9874537E-1,-5.700347E-2,-6.446304E-1,-1.1433307E-2,5.564616E-1,-1.818187E-1,-5.4466896E-2,1.0756289E-1,-2.1131447E-1,8.911362E-2,1.7298402E-3,6.2630373E-1,-2.4778749E-1,5.740585E-2,-3.8171902E-2,-2.5514808E-1,-1.599323E-1,1.5892687E-1,-2.773478E-1,-9.429838E-1,2.4128622E-1,-1.6794114E-1,-2.1009529E-2,2.3689966E-1,-1.7814904E-1,6.5362915E-2,2.2998631E-1,-2.7031735E-2,1.5252095E-1,-8.28336E-2,-2.2618616E-1,1.10302836E-1,-3.1306052E-1,-8.70286E-2,1.5700895E-1,-1.0954099E-1],"categories":[],"categories_nodes":[],"categories_segments":[],"categories_sizes":[],"default_left":[0,0,0,0,0,0,0,0,0,0,0,0,0,0,0,0,0,0,0,0,0,0,0,0,0,0,0,0,0,0,0,0,0,0,0,0,0,0,0,0,0,0,0,0,0,0,0,0,0,0,0,0,0],"id":14,"left_children":[1,3,5,7,9,11,13,15,17,19,21,-1,23,25,-1,27,29,31,33,35,37,39,-1,-1,-1,-1,-1,41,43,-1,-1,-1,-1,45,-1,47,49,51,-1,-1,-1,-1,-1,-1,-1,-1,-1,-1,-1,-1,-1,-1,-1],"loss_changes":[1.0061132E0,1.0591152E0,7.36562E-1,1.9854963E0,2.367E0,5.447092E-1,8.357142E-1,1.5774738E0,1.322731E0,1.4068794E0,1.9232397E0,0E0,2.917854E-1,1.1415772E0,0E0,1.8050954E0,9.2814946E-1,2.4456477E-1,1.1297995E0,9.2188835E-1,1.0015099E0,8.6268437E-1,0E0,0E0,0E0,0E0,0E0,1.3243768E0,1.1246357E0,0E0,0E0,0E0,0E0,1.3431115E0,0E0,2.2008462E0,6.1120987E-2,1.0427171E0,0E0,0E0,0E0,0E0,0E0,0E0,0E0,0E0,0E0,0E0,0E0,0E0,0E0,0E0,0E0],"parents":[2147483647,0,0,1,1,2,2,3,3,4,4,5,5,6,6,7,7,8,8,9,9,10,10,12,12,13,13,15,15,16,16,17,17,18,18,19,19,20,20,21,21,27,27,28,28,33,33,35,35,36,36,37,37],"right_children":[2,4,6,8,10,12,14,16,18,20,22,-1,24,26,-1,28,30,32,34,36,38,40,-1,-1,-1,-1,-1,42,44,-1,-1,-1,-1,46,-1,48,50,52,-1,-1,-1,-1,-1,-1,-1,-1,-1,-1,-1,-1,-1,-1,-1],"split_conditions":[4.09E1,7.8E1,4.45E1,4.9E1,1.1E2,1.4E1,4.83E1,1E1,8.8E1,4.7E1,3.85E1,2.4930142E-1,1.29E2,8E1,1.3388771E-1,3.09E1,2.59E-1,2E0,8E0,3.8E1,3.51E1,2.5E1,-1.818187E-1,-5.4466896E-2,1.0756289E-1,-2.1131447E-1,8.911362E-2,2.38E-1,3.84E1,-2.4778749E-1,5.740585E-2,-3.8171902E-2,-2.5514808E-1,1E2,1.5892687E-1,3.2E1,1.41E2,6.3E1,-1.6794114E-1,-2.1009529E-2,2.3689966E-1,-1.7814904E-1,6.5362915E-2,2.2998631E-1,-2.7031735E-2,1.5252095E-1,-8.28336E-2,-2.2618616E-1,1.10302836E-1,-3.1306052E-1,-8.70286E-2,1.5700895E-1,-1.0954099E-1],"split_indices":[5,2,5,4,4,4,5,0,4,7,5,0,1,2,0,5,6,0,0,7,5,3,0,0,0,0,0,6,5,0,0,0,0,4,0,7,1,7,0,0,0,0,0,0,0,0,0,0,0,0,0,0,0],"split_type":[0,0,0,0,0,0,0,0,0,0,0,0,0,0,0,0,0,0,0,0,0,0,0,0,0,0,0,0,0,0,0,0,0,0,0,0,0,0,0,0,0,0,0,0,0,0,0,0,0,0,0,0,0],"sum_hessian":[6.8264984E1,5.9875782E1,8.389202E0,3.9286224E1,2.0589558E1,4.068526E0,4.3206763E0,1.9914272E1,1.9371952E1,1.5051696E1,5.5378623E0,1.9464502E0,2.1220758E0,2.8601718E0,1.4605047E0,1.7783592E1,2.1306794E0,3.0678182E0,1.6304134E1,9.799622E0,5.2520742E0,4.526205E0,1.0116571E0,1.1217743E0,1.0003014E0,1.5961311E0,1.2640407E0,8.283088E0,9.5005045E0,1.1008636E0,1.0298157E0,1.0294083E0,2.0384097E0,1.4489781E1,1.8143522E0,5.2573056E0,4.542316E0,3.9785376E0,1.2735367E0,1.4175934E0,3.1086116E0,1.7403795E0,6.5427084E0,7.885875E0,1.6146291E0,1.6458508E0,1.284393E1,2.9262395E0,2.3310661E0,3.4176311E0,1.1246847E0,2.8089325E0,1.1696051E0],"tree_param":{"num_deleted":"0","num_feature":"8","num_nodes":"53","size_leaf_vector":"1"}},{"base_weights":[-1.9047052E-2,-2.6172778E-1,3.2971114E-2,1.3914964E-1,-4.4939876E-1,8.326869E-3,2.035154E-1,-2.3646277E-1,2.1950741E-1,-2.3814732E-1,-4.8658546E-2,3.5148222E-2,-1.4789362E-1,-1.20286055E-1,2.1849934E-2,2.792439E-1,-1.3534957E-1,-1.300339E-2,4.384824E-1,-3.2961823E-2,1.7234081E-1,-3.682055E-1,2.714867E-2,7.354798E-2,2.299113E-1,-2.0666015E-1,1.2837221E-2,3.5936423E-2,-8.360727E-2,-1.0463188E-1,1.2008664E-1],"categories":[],"categories_nodes":[],"categories_segments":[],"categories_sizes":[],"default_left":[0,0,0,0,0,0,0,0,0,0,0,0,0,0,0,0,0,0,0,0,0,0,0,0,0,0,0,0,0,0,0],"id":15,"left_children":[1,3,5,7,9,11,-1,13,-1,-1,15,17,-1,-1,-1,19,-1,21,23,-1,-1,25,27,29,-1,-1,-1,-1,-1,-1,-1],"loss_changes":[8.5209906E-1,9.582383E-1,8.836414E-1,1.1879107E0,1.1132996E0,7.550408E-1,0E0,2.0964079E-1,0E0,0E0,7.7571386E-1,1.0352807E0,0E0,0E0,0E0,4.45718E-1,0E0,6.992897E-1,6.236185E-1,0E0,0E0,6.8541235E-1,1.2900382E0,6.633618E-1,0E0,0E0,0E0,0E0,0E0,0E0,0E0],"parents":[2147483647,0,0,1,1,2,2,3,3,4,4,5,5,7,7,10,10,11,11,15,15,17,17,18,18,21,21,22,22,23,23],"right_children":[2,4,6,8,10,12,-1,14,-1,-1,16,18,-1,-1,-1,20,-1,22,24,-1,-1,26,28,30,-1,-1,-1,-1,-1,-1,-1],"split_conditions":[2.5E1,1.4E1,4.83E1,5.83E-1,3.2E1,1.391E0,2.035154E-1,3.19E1,2.1950741E-1,-2.3814732E-1,7E1,1.66E2,-1.4789362E-1,-1.20286055E-1,2.1849934E-2,1.44E2,-1.3534957E-1,2.63E1,1.32E2,-3.2961823E-2,1.7234081E-1,1.25E2,8.4E1,7.2E1,2.299113E-1,-2.0666015E-1,1.2837221E-2,3.5936423E-2,-8.360727E-2,-1.0463188E-1,1.2008664E-1],"split_indices":[7,3,5,6,3,6,0,5,0,0,2,1,0,0,0,4,0,5,4,0,0,1,2,2,0,0,0,0,0,0,0],"split_type":[0,0,0,0,0,0,0,0,0,0,0,0,0,0,0,0,0,0,0,0,0,0,0,0,0,0,0,0,0,0,0],"sum_hessian":[6.581579E1,1.0905731E1,5.4910057E1,3.5599625E0,7.3457685E0,5.386615E1,1.0439049E0,2.5466042E0,1.0133585E0,3.4229436E0,3.9228246E0,5.2013176E1,1.8529742E0,1.4690084E0,1.0775956E0,2.3305104E0,1.5923145E0,4.7330444E1,4.6827335E0,1.2762312E0,1.0542792E0,3.977096E0,4.3353348E1,2.7955933E0,1.88714E0,1.8542825E0,2.1228137E0,3.3741356E1,9.611992E0,1.1900252E0,1.6055682E0],"tree_param":{"num_deleted":"0","num_feature":"8","num_nodes":"31","size_leaf_vector":"1"}},{"base_weights":[-1.5525488E-2,-3.9725485E-1,1.3480837E-2,-2.05499E-1,4.509575E-3,1.7043048E-1,-5.3941514E-2,-1.0578772E-1,3.7485003E-1,-5.6476444E-1,7.76064E-3,-4.2236245E-1,1.306559E-1,6.7525005E-1,8.5888214E-2,-2.9385287E-1,7.955852E-2,-6.38817E-2,3.3178025E-1,3.7805147E-3,-2.123685E-1,5.529026E-1,-3.599834E-1,2.7030614E-1,2.2681274E-3,-5.1276916E-1,5.5749834E-1,-1.8744488E-1,1.4680818E-1,4.7061136E-1,-4.676987E-2,2.4666795E-1,1.2034726E-2,-1.7702118E-1,6.5446575E-4,-2.4096404E-1,1.1827119E-3,2.5748926E-1,1.8700474E-3,-1.9611947E-2,-1.9753389E-1,-8.9147575E-3,2.4225001E-1,1.9026417E-1,-3.573368E-2],"categories":[],"categories_nodes":[],"categories_segments":[],"categories_sizes":[],"default_left":[0,0,0,0,0,0,0,0,0,0,0,0,0,0,0,0,0,0,0,0,0,0,0,0,0,0,0,0,0,0,0,0,0,0,0,0,0,0,0,0,0,0,0,0,0],"id":16,"left_children":[1,3,5,-1,-1,7,9,11,13,15,17,19,21,23,25,-1,-1,27,29,-1,-1,31,33,-1,-1,35,37,39,41,43,-1,-1,-1,-1,-1,-1,-1,-1,-1,-1,-1,-1,-1,-1,-1],"loss_changes":[7.266809E-1,5.599678E-1,6.6010666E-1,0E0,0E0,1.0969131E0,1.384517E0,7.096556E-1,8.9518344E-1,1.8888329E0,9.510104E-1,5.025474E-1,1.394197E0,7.8280544E-1,2.1895514E0,0E0,0E0,9.033049E-1,5.753462E-1,0E0,0E0,4.4968426E-1,2.7411172E-1,0E0,0E0,5.27238E-1,6.994927E-1,1.2013973E0,1.5397794E0,6.563616E-1,0E0,0E0,0E0,0E0,0E0,0E0,0E0,0E0,0E0,0E0,0E0,0E0,0E0,0E0,0E0],"parents":[2147483647,0,0,1,1,2,2,5,5,6,6,7,7,8,8,9,9,10,10,11,11,12,12,13,13,14,14,17,17,18,18,21,21,22,22,25,25,26,26,27,27,28,28,29,29],"right_children":[2,4,6,-1,-1,8,10,12,14,16,18,20,22,24,26,-1,-1,28,30,-1,-1,32,34,-1,-1,36,38,40,42,44,-1,-1,-1,-1,-1,-1,-1,-1,-1,-1,-1,-1,-1,-1,-1],"split_conditions":[8.8E1,3.1E1,6.8E1,-2.05499E-1,4.509575E-3,3.19E1,7E1,3E0,1.4E1,2.7E1,1.56E2,4.26E-1,2.75E1,3.79E1,4.67E-1,-2.9385287E-1,7.955852E-2,4.2E1,2.5E2,3.7805147E-3,-2.123685E-1,3E1,4E0,2.7030614E-1,2.2681274E-3,3.41E1,2.7E1,1.92E2,1.4E2,5.4E1,-4.676987E-2,2.4666795E-1,1.2034726E-2,-1.7702118E-1,6.5446575E-4,-2.4096404E-1,1.1827119E-3,2.5748926E-1,1.8700474E-3,-1.9611947E-2,-1.9753389E-1,-8.9147575E-3,2.4225001E-1,1.9026417E-1,-3.573368E-2],"split_indices":[1,3,2,0,0,5,2,0,4,3,1,6,5,5,6,0,0,7,4,0,0,7,0,0,0,5,7,4,4,7,0,0,0,0,0,0,0,0,0,0,0,0,0,0,0],"split_type":[0,0,0,0,0,0,0,0,0,0,0,0,0,0,0,0,0,0,0,0,0,0,0,0,0,0,0,0,0,0,0,0,0,0,0,0,0,0,0,0,0,0,0,0,0],"sum_hessian":[6.414529E1,3.6334083E0,6.051188E1,1.7503521E0,1.8830562E0,1.7724339E1,4.278754E1,7.7435303E0,9.980807E0,3.7326245E0,3.9054916E1,2.9745657E0,4.768965E0,4.238116E0,5.7426915E0,2.3687365E0,1.3638879E0,3.264073E1,6.414181E0,1.5576283E0,1.4169375E0,2.4949207E0,2.274044E0,2.9060228E0,1.3320931E0,2.4920428E0,3.250649E0,2.0643991E1,1.1996742E1,5.0200806E0,1.3941009E0,1.2401351E0,1.2547857E0,1.0057769E0,1.268267E0,1.240362E0,1.2516806E0,1.7427514E0,1.5078976E0,1.7299255E1,3.3447363E0,1.0220931E1,1.7758112E0,3.8707933E0,1.1492871E0],"tree_param":{"num_deleted":"0","num_feature":"8","num_nodes":"45","size_leaf_vector":"1"}},{"base_weights":[-1.3450204E-2,-2.3509714E-1,3.0854221E-2,-4.1862094E-1,1.2119997E-1,-3.1600703E-2,2.3896307E-1,-1.9864176E-1,-1.2450184E-3,4.1445673E-1,-1.04949035E-1,1.0319182E-1,-2.409815E-1,-6.613017E-3,4.9606794E-1,1.2471036E-1,-1.2819295E-1,3.2209992E-2,1.5574726E-1,1.8987346E-1,-3.8175774E-1,-3.5394686E-1,1.8740478E-1,1.6566291E-1,-2.9281238E-1,2.3582229E-1,9.306013E-2,-3.2715926E-1,2.6604167E-1,-5.6989366E-1,3.0766169E-2,-4.61558E-1,1.08828805E-1,1.4521268E-1,-9.516344E-2,7.148312E-2,-6.3296324E-1,-7.911308E-2,1.2086062E-1,-1.7832653E-1,3.5926275E-2,3.4696177E-2,1.4511998E-1,-4.7195625E-2,-2.1712102E-1,-1.904393E-1,1.3814116E-2,-2.2102132E-1,-5.7042968E-2],"categories":[],"categories_nodes":[],"categories_segments":[],"categories_sizes":[],"default_left":[0,0,0,0,0,0,0,0,0,0,0,0,0,0,0,0,0,0,0,0,0,0,0,0,0,0,0,0,0,0,0,0,0,0,0,0,0,0,0,0,0,0,0,0,0,0,0,0,0],"id":17,"left_children":[1,3,5,7,9,11,13,-1,15,17,-1,19,21,23,25,-1,-1,-1,-1,27,29,31,33,-1,35,-1,37,39,41,43,-1,45,-1,-1,-1,-1,47,-1,-1,-1,-1,-1,-1,-1,-1,-1,-1,-1,-1],"loss_changes":[6.275762E-1,7.4643356E-1,7.0330757E-1,7.3572993E-1,7.5174576E-1,1.2118403E0,7.908321E-1,0E0,8.2996637E-1,4.6018124E-2,0E0,1.1774457E0,8.779312E-1,1.3398606E0,6.4057755E-1,0E0,0E0,0E0,0E0,9.915426E-1,4.5189738E-1,1.2177057E0,7.7527165E-1,0E0,1.1489271E0,0E0,5.140758E-1,4.7700414E-1,6.174841E-1,9.322083E-2,0E0,1.109097E0,0E0,0E0,0E0,0E0,2.725184E-2,0E0,0E0,0E0,0E0,0E0,0E0,0E0,0E0,0E0,0E0,0E0,0E0],"parents":[2147483647,0,0,1,1,2,2,3,3,4,4,5,5,6,6,8,8,9,9,11,11,12,12,13,13,14,14,19,19,20,20,21,21,22,22,24,24,26,26,27,27,28,28,29,29,31,31,36,36],"right_children":[2,4,6,8,10,12,14,-1,16,18,-1,20,22,24,26,-1,-1,-1,-1,28,30,32,34,-1,36,-1,38,40,42,44,-1,46,-1,-1,-1,-1,48,-1,-1,-1,-1,-1,-1,-1,-1,-1,-1,-1,-1],"split_conditions":[2.5E1,1.31E2,1.42E2,5.29E-1,1.68E2,7.8E1,7.8E1,-1.9864176E-1,6.86E-1,3.31E1,-1.04949035E-1,1.16E2,7.32E-1,2.6E1,4.26E-1,1.2471036E-1,-1.2819295E-1,3.2209992E-2,1.5574726E-1,2.63E1,3.2E1,9.6E1,3.93E1,1.6566291E-1,6.8E1,2.3582229E-1,7.09E-1,1.27E2,2.6E1,2.7E1,3.0766169E-2,1.44E2,1.08828805E-1,1.4521268E-1,-9.516344E-2,7.148312E-2,2.65E2,-7.911308E-2,1.2086062E-1,-1.7832653E-1,3.5926275E-2,3.4696177E-2,1.4511998E-1,-4.7195625E-2,-2.1712102E-1,-1.904393E-1,1.3814116E-2,-2.2102132E-1,-5.7042968E-2],"split_indices":[7,1,4,6,4,2,2,0,6,5,0,4,6,3,6,0,0,0,0,5,3,2,5,0,2,0,6,1,3,3,0,1,0,0,0,0,4,0,0,0,0,0,0,0,0,0,0,0,0],"split_type":[0,0,0,0,0,0,0,0,0,0,0,0,0,0,0,0,0,0,0,0,0,0,0,0,0,0,0,0,0,0,0,0,0,0,0,0,0,0,0,0,0,0,0,0,0,0,0,0,0],"sum_hessian":[6.2169678E1,9.639354E0,5.2530323E1,6.2467937E0,3.3925595E0,4.1056988E1,1.1473337E1,3.5746996E0,2.6720943E0,2.164856E0,1.2277036E0,2.5285904E1,1.5771083E1,6.3665485E0,5.106788E0,1.3627923E0,1.3093021E0,1.0654185E0,1.0994376E0,2.1967773E1,3.3181312E0,1.2617594E1,3.1534896E0,1.8414806E0,4.5250683E0,2.4169912E0,2.6897972E0,2.3975947E0,1.9570179E1,2.2625222E0,1.055609E0,1.1279956E1,1.3376373E0,2.0116925E0,1.1417972E0,1.8836132E0,2.641455E0,1.3193043E0,1.3704927E0,1.2938117E0,1.1037829E0,1.247994E1,7.090238E0,1.1638669E0,1.0986553E0,8.222977E0,3.0569794E0,1.6022323E0,1.0392226E0],"tree_param":{"num_deleted":"0","num_feature":"8","num_nodes":"49","size_leaf_vector":"1"}},{"base_weights":[-1.2907796E-2,-2.6992846E-1,2.9305456E-2,-4.1487598E-1,6.338239E-2,6.999597E-2,-3.0634573E-1,-5.284142E-1,2.1608073E-2,2.0739315E-1,-1.01600364E-1,-2.8279603E-1,3.1698376E-1,-6.751795E-1,-9.999648E-3,2.4757625E-1,-8.951255E-2,-5.109936E-1,2.0198263E-2,-1.0292038E-2,1.6719824E-1,-4.927172E-2,-2.3455638E-1,1.4960138E-1,6.752556E-1,5.221466E-4,-7.210306E-1,-3.8792148E-1,1.3221832E-1,7.525934E-2,-8.6803816E-2,2.3585315E-1,7.174641E-2,-2.69693E-1,-4.5920614E-2,-1.5974727E-1,8.758412E-3,1.763283E-1,-4.1452937E-2],"categories":[],"categories_nodes":[],"categories_segments":[],"categories_sizes":[],"default_left":[0,0,0,0,0,0,0,0,0,0,0,0,0,0,0,0,0,0,0,0,0,0,0,0,0,0,0,0,0,0,0,0,0,0,0,0,0,0,0],"id":18,"left_children":[1,3,5,7,-1,9,11,13,-1,15,17,-1,19,21,-1,23,-1,25,27,-1,-1,-1,-1,29,31,-1,33,35,37,-1,-1,-1,-1,-1,-1,-1,-1,-1,-1],"loss_changes":[6.709803E-1,6.9582325E-1,7.5070035E-1,4.271549E-1,0E0,1.163034E0,2.662362E0,4.0092015E-1,0E0,6.272161E-1,1.117723E0,0E0,3.3646095E-1,1.1375213E-1,0E0,9.787768E-1,0E0,5.5375457E-1,8.777884E-1,0E0,0E0,0E0,0E0,1.0616316E0,3.0556202E-2,0E0,2.304647E-1,2.6565808E-1,1.9203233E0,0E0,0E0,0E0,0E0,0E0,0E0,0E0,0E0,0E0,0E0],"parents":[2147483647,0,0,1,1,2,2,3,3,5,5,6,6,7,7,9,9,10,10,12,12,13,13,15,15,17,17,18,18,23,23,24,24,26,26,27,27,28,28],"right_children":[2,4,6,8,-1,10,12,14,-1,16,18,-1,20,22,-1,24,-1,26,28,-1,-1,-1,-1,30,32,-1,34,36,38,-1,-1,-1,-1,-1,-1,-1,-1,-1,-1],"split_conditions":[1E2,8.7E1,1E1,4.3E1,6.338239E-2,2.5E1,2E1,3.82E1,2.1608073E-2,6.3E1,3.1E1,-2.8279603E-1,1.06E2,8E0,-9.999648E-3,4.9E1,-8.951255E-2,2.8E1,3E1,-1.0292038E-2,1.6719824E-1,-4.927172E-2,-2.3455638E-1,8.4E1,5.5E1,5.221466E-4,1.22E2,2E2,3.52E1,7.525934E-2,-8.6803816E-2,2.3585315E-1,7.174641E-2,-2.69693E-1,-4.5920614E-2,-1.5974727E-1,8.758412E-3,1.763283E-1,-4.1452937E-2],"split_indices":[1,4,0,7,0,3,3,5,0,7,5,0,4,3,0,7,0,5,3,0,0,0,0,2,7,0,4,4,5,0,0,0,0,0,0,0,0,0,0],"split_type":[0,0,0,0,0,0,0,0,0,0,0,0,0,0,0,0,0,0,0,0,0,0,0,0,0,0,0,0,0,0,0,0,0,0,0,0,0,0,0],"sum_hessian":[6.011425E1,7.7193885E0,5.2394863E1,6.038357E0,1.681032E0,4.7435757E1,4.9591064E0,4.827421E0,1.2109354E0,2.6227104E1,2.1208652E1,2.2005017E0,2.758605E0,3.4429867E0,1.3844345E0,2.4769659E1,1.457445E0,4.1303153E0,1.7078337E1,1.4688978E0,1.2897072E0,1.0333208E0,2.409666E0,2.125114E1,3.518517E0,1.4884595E0,2.6418557E0,3.1476436E0,1.3930694E1,1.7615755E1,3.6353855E0,2.1650887E0,1.3534282E0,1.5678325E0,1.0740231E0,2.1320796E0,1.0155641E0,4.751677E0,9.179017E0],"tree_param":{"num_deleted":"0","num_feature":"8","num_nodes":"39","size_leaf_vector":"1"}},{"base_weights":[-1.7816963E-2,-5.650206E-2,2.2940718E-1,-3.2872092E-2,-1.7951375E-1,-6.610118E-2,5.060923E-1,-1.1097379E-1,1.512668E-1,-1.432524E-1,3.3136538E-1,2.3886517E-1,2.3123657E-2,-5.414841E-2,-5.045786E-1,6.011051E-1,8.588536E-4,1.8025488E-1,-3.3545982E-2,-1.2878576E-1,4.7969106E-1,-2.523902E-1,4.033852E-2,4.269124E-2,2.3338524E-1,2.4922188E-1,-2.5052264E-1,-2.432913E-2,-1.9332169E-1,3.3900585E-2,1.9031622E-1,-1.1334049E-1,1.3304023E-1,-1.2940495E-1,1.19602196E-1],"categories":[],"categories_nodes":[],"categories_segments":[],"categories_sizes":[],"default_left":[0,0,0,0,0,0,0,0,0,0,0,0,0,0,0,0,0,0,0,0,0,0,0,0,0,0,0,0,0,0,0,0,0,0,0],"id":19,"left_children":[1,3,5,7,-1,9,11,13,15,-1,17,-1,-1,19,21,23,25,-1,-1,27,29,-1,-1,-1,-1,31,33,-1,-1,-1,-1,-1,-1,-1,-1],"loss_changes":[5.8507395E-1,6.5293205E-1,7.113975E-1,7.558783E-1,0E0,9.584815E-1,4.8599958E-1,7.927041E-1,1.0636868E0,0E0,4.3497086E-1,0E0,0E0,1.3829235E0,1.0825226E0,2.0896268E-1,8.6090255E-1,0E0,0E0,6.8243706E-1,1.7103308E-1,0E0,0E0,0E0,0E0,1.0121316E0,9.7664297E-1,0E0,0E0,0E0,0E0,0E0,0E0,0E0,0E0],"parents":[2147483647,0,0,1,1,2,2,3,3,5,5,6,6,7,7,8,8,10,10,13,13,14,14,15,15,16,16,19,19,20,20,25,25,26,26],"right_children":[2,4,6,8,-1,10,12,14,16,-1,18,-1,-1,20,22,24,26,-1,-1,28,30,-1,-1,-1,-1,32,34,-1,-1,-1,-1,-1,-1,-1,-1],"split_conditions":[4.09E1,1.441E0,8E1,4.2E1,-1.7951375E-1,1.21E2,1.4E1,1.96E2,4.5E1,-1.432524E-1,4.34E1,2.3886517E-1,2.3123657E-2,1.59E2,1.55E2,4.3E1,7E0,1.8025488E-1,-3.3545982E-2,3.93E1,3E1,-2.523902E-1,4.033852E-2,4.269124E-2,2.3338524E-1,7E1,1.4E2,-2.432913E-2,-1.9332169E-1,3.3900585E-2,1.9031622E-1,-1.1334049E-1,1.3304023E-1,-1.2940495E-1,1.19602196E-1],"split_indices":[5,6,2,7,0,1,4,4,7,0,5,0,0,4,1,7,0,0,0,5,3,0,0,0,0,2,4,0,0,0,0,0,0,0,0],"split_type":[0,0,0,0,0,0,0,0,0,0,0,0,0,0,0,0,0,0,0,0,0,0,0,0,0,0,0,0,0,0,0,0,0,0,0],"sum_hessian":[5.8820007E1,5.1528408E1,7.2915998E0,5.0391613E1,1.1367949E0,3.893895E0,3.3977048E0,3.566275E1,1.4728862E1,1.8144392E0,2.0794556E0,1.5163388E0,1.881366E0,3.2157665E1,3.5050855E0,2.9398613E0,1.17890005E1,1.0719134E0,1.0075424E0,2.8878809E1,3.2788582E0,2.0882444E0,1.416841E0,1.3199967E0,1.6198646E0,5.934425E0,5.854576E0,2.7493288E1,1.3855191E0,1.4862814E0,1.7925768E0,1.1800997E0,4.754325E0,4.8415694E0,1.0130067E0],"tree_param":{"num_deleted":"0","num_feature":"8","num_nodes":"35","size_leaf_vector":"1"}},{"base_weights":[-9.919721E-3,-2.3589844E-1,3.3926863E-2,-4.439193E-2,-5.3273153E-1,4.0111342E-1,-1.1185416E-2,4.3903396E-1,-5.414042E-1,3.5448987E-2,-2.5586763E-1,-7.944274E-2,2.1613476E-1,-6.73715E-2,1.5413038E-1,2.1576872E-2,2.2991054E-1,-2.259573E-1,6.7377347E-3,-2.9180872E-1,9.772668E-3,-9.243469E-2,2.7329633E-1,2.5650126E-1,-5.383781E-1,2.1978544E-1,-1.078652E-1,4.8697132E-1,9.489677E-2,1.60909E-1,-3.190146E-2,-1.8597212E-1,-2.4395008E-2,-1.2699796E-1,8.150421E-4,2.0708823E-1,-7.65676E-3,1.226896E-1,-6.6369735E-2],"categories":[],"categories_nodes":[],"categories_segments":[],"categories_sizes":[],"default_left":[0,0,0,0,0,0,0,0,0,0,0,0,0,0,0,0,0,0,0,0,0,0,0,0,0,0,0,0,0,0,0,0,0,0,0,0,0,0,0],"id":20,"left_children":[1,3,5,7,9,11,13,15,17,-1,-1,-1,-1,19,21,-1,-1,-1,-1,23,25,-1,27,29,31,-1,33,35,37,-1,-1,-1,-1,-1,-1,-1,-1,-1,-1],"loss_changes":[5.843825E-1,5.2084446E-1,8.2596457E-1,1.8986971E0,8.646122E-1,1.3504505E0,4.2965502E-1,4.323613E-1,4.774481E-1,0E0,0E0,0E0,0E0,5.9819233E-1,7.316692E-1,0E0,0E0,0E0,0E0,1.3316112E0,2.33726E0,0E0,3.3021545E-1,4.0388662E-1,1.8853664E-1,0E0,8.283105E-1,4.6059954E-1,7.481214E-1,0E0,0E0,0E0,0E0,0E0,0E0,0E0,0E0,0E0,0E0],"parents":[2147483647,0,0,1,1,2,2,3,3,4,4,5,5,6,6,7,7,8,8,13,13,14,14,19,19,20,20,22,22,23,23,24,24,26,26,27,27,28,28],"right_children":[2,4,6,8,10,12,14,16,18,-1,-1,-1,-1,20,22,-1,-1,-1,-1,24,26,-1,28,30,32,-1,34,36,38,-1,-1,-1,-1,-1,-1,-1,-1,-1,-1],"split_conditions":[2.03E-1,1.81E-1,2.43E-1,8E0,3E1,1.21E2,4.2E1,1.59E-1,4.2E1,3.5448987E-2,-2.5586763E-1,-7.944274E-2,2.1613476E-1,3.19E-1,2.68E1,2.1576872E-2,2.2991054E-1,-2.259573E-1,6.7377347E-3,1.16E2,3.74E-1,-9.243469E-2,6E0,2.62E-1,1.6E2,2.1978544E-1,4.82E-1,8.2E1,4.7E1,1.60909E-1,-3.190146E-2,-1.8597212E-1,-2.4395008E-2,-1.2699796E-1,8.150421E-4,2.0708823E-1,-7.65676E-3,1.226896E-1,-6.6369735E-2],"split_indices":[6,6,6,3,7,1,7,6,7,0,0,0,0,6,5,0,0,0,0,1,6,0,0,6,1,0,6,2,7,0,0,0,0,0,0,0,0,0,0],"split_type":[0,0,0,0,0,0,0,0,0,0,0,0,0,0,0,0,0,0,0,0,0,0,0,0,0,0,0,0,0,0,0,0,0,0,0,0,0,0,0],"sum_hessian":[5.71708E1,8.5784855E0,4.859231E1,5.913105E0,2.6653802E0,4.4533443E0,4.413897E1,3.0566578E0,2.856447E0,1.086804E0,1.5785762E0,1.4987324E0,2.954612E0,3.3384876E1,1.0754091E1,2.0157187E0,1.0409392E0,1.8324218E0,1.0240253E0,7.8280163E0,2.5556862E1,1.8791698E0,8.874922E0,2.415734E0,5.412282E0,2.8453562E0,2.2711506E1,3.251194E0,5.623728E0,1.09382E0,1.3219141E0,4.290644E0,1.1216381E0,5.160835E0,1.755067E1,2.0793269E0,1.1718671E0,2.6737454E0,2.9499822E0],"tree_param":{"num_deleted":"0","num_feature":"8","num_nodes":"39","size_leaf_vector":"1"}},{"base_weights":[-5.525474E-3,-1.0420597E-1,8.52641E-2,-1.4200761E-3,-5.691802E-1,-2.1818963E-1,1.5067093E-1,-1.2597379E-1,3.0051607E-1,3.1902246E-2,-2.565757E-1,-4.988453E-1,8.5795894E-2,2.7701172E-1,-7.866571E-2,-4.6927208E-1,2.1656597E-2,-9.951925E-2,5.611383E-1,-4.351959E-2,-1.8046656E-1,1.5315074E-1,-1.3065478E-1,4.0312126E-1,-1.9479275E-1,-4.6379742E-1,3.350553E-1,1.0323699E-2,-6.193625E-1,-1.42988E-1,3.2263198E-1,8.388432E-2,-1.666856E-1,3.3356966E-3,2.226315E-1,1.3057873E-1,2.2842592E-1,5.0344534E-2,-1.3652824E-1,-6.2153604E-2,-2.697231E-1,5.0731117E-1,-3.9152283E-2,-2.3489487E-1,-2.0568563E-2,2.721968E-2,-1.0536507E-1,1.5438002E-1,-3.8883798E-2,-4.6958342E-2,1.04191855E-1,-9.793319E-2,8.3401345E-2,1.846555E-1,4.208568E-2],"categories":[],"categories_nodes":[],"categories_segments":[],"categories_sizes":[],"default_left":[0,0,0,0,0,0,0,0,0,0,0,0,0,0,0,0,0,0,0,0,0,0,0,0,0,0,0,0,0,0,0,0,0,0,0,0,0,0,0,0,0,0,0,0,0,0,0,0,0,0,0,0,0,0,0],"id":21,"left_children":[1,3,5,7,9,11,13,15,17,-1,-1,19,21,23,25,27,29,31,33,-1,-1,-1,-1,35,37,39,41,-1,43,45,47,-1,-1,-1,-1,49,-1,-1,-1,51,-1,53,-1,-1,-1,-1,-1,-1,-1,-1,-1,-1,-1,-1,-1],"loss_changes":[5.1372886E-1,1.3111678E0,6.26291E-1,9.210307E-1,1.0508523E0,5.2995324E-1,7.516048E-1,8.8848686E-1,8.0168176E-1,0E0,0E0,2.5949538E-2,1.0181365E0,1.058007E0,1.7050984E0,4.186306E-1,6.9403666E-1,7.9023504E-1,4.3789685E-1,0E0,0E0,0E0,0E0,1.2008839E0,4.6773356E-1,8.9805007E-1,4.88801E-1,0E0,3.1597245E-1,4.7689837E-1,4.9473447E-1,0E0,0E0,0E0,0E0,6.00064E-1,0E0,0E0,0E0,4.4245437E-1,0E0,7.453561E-2,0E0,0E0,0E0,0E0,0E0,0E0,0E0,0E0,0E0,0E0,0E0,0E0,0E0],"parents":[2147483647,0,0,1,1,2,2,3,3,4,4,5,5,6,6,7,7,8,8,11,11,12,12,13,13,14,14,15,15,16,16,17,17,18,18,23,23,24,24,25,25,26,26,28,28,29,29,30,30,35,35,39,39,41,41],"right_children":[2,4,6,8,10,12,14,16,18,-1,-1,20,22,24,26,28,30,32,34,-1,-1,-1,-1,36,38,40,42,-1,44,46,48,-1,-1,-1,-1,50,-1,-1,-1,52,-1,54,-1,-1,-1,-1,-1,-1,-1,-1,-1,-1,-1,-1,-1],"split_conditions":[1.24E2,1.2E2,2.03E-1,1.12E2,3.28E-1,6E0,6E0,2E0,2.8E1,3.1902246E-2,-2.565757E-1,3E0,9E0,1.96E2,8E0,6.4E1,6.4E-1,1.4E1,2.88E1,-4.351959E-2,-1.8046656E-1,1.5315074E-1,-1.3065478E-1,7.1E1,3.99E-1,6.31E-1,1.1E1,1.0323699E-2,3.7E1,3.25E1,8.74E-1,8.388432E-2,-1.666856E-1,3.3356966E-3,2.226315E-1,3.15E-1,2.2842592E-1,5.0344534E-2,-1.3652824E-1,4.1E1,-2.697231E-1,4.8E1,-3.9152283E-2,-2.3489487E-1,-2.0568563E-2,2.721968E-2,-1.0536507E-1,1.5438002E-1,-3.8883798E-2,-4.6958342E-2,1.04191855E-1,-9.793319E-2,8.3401345E-2,1.846555E-1,4.208568E-2],"split_indices":[1,1,6,1,6,0,0,0,7,0,0,0,0,4,0,2,6,4,5,0,0,0,0,4,6,6,0,0,7,5,6,0,0,0,0,6,0,0,0,7,0,7,0,0,0,0,0,0,0,0,0,0,0,0,0],"split_type":[0,0,0,0,0,0,0,0,0,0,0,0,0,0,0,0,0,0,0,0,0,0,0,0,0,0,0,0,0,0,0,0,0,0,0,0,0,0,0,0,0,0,0,0,0,0,0,0,0,0,0,0,0,0,0],"sum_hessian":[5.5349457E1,2.645134E1,2.8898117E1,2.2484118E1,3.967222E0,4.710049E0,2.4188068E1,1.6330353E1,6.153764E0,1.3671507E0,2.6000712E0,2.1157026E0,2.5943465E0,1.5462143E1,8.725925E0,4.255638E0,1.2074716E1,2.6714451E0,3.4823189E0,1.0188149E0,1.0968878E0,1.4410639E0,1.1532825E0,1.2315803E1,3.14634E0,4.4564185E0,4.2695065E0,1.1539272E0,3.101711E0,8.144366E0,3.9303493E0,1.6701082E0,1.0013369E0,1.1248773E0,2.3574417E0,7.769962E0,4.545841E0,1.4632676E0,1.6830723E0,2.9121194E0,1.5442992E0,3.050985E0,1.2185216E0,2.0663474E0,1.0353637E0,4.103162E0,4.041204E0,2.6623569E0,1.2679925E0,3.4617822E0,4.3081794E0,1.6615067E0,1.2506129E0,1.8334107E0,1.2175744E0],"tree_param":{"num_deleted":"0","num_feature":"8","num_nodes":"55","size_leaf_vector":"1"}},{"base_weights":[-1.1632266E-2,-5.1513705E-2,1.9060159E-1,-1.8213902E-2,-1.7083159E-1,-1.9816322E-2,3.2152948E-1,-7.11582E-2,1.2822272E-1,-9.402896E-2,2.0699279E-1,2.0022057E-1,4.5290403E-2,-3.2290623E-1,-2.2645814E-3,-1.07794076E-1,4.9883872E-1,1.02825046E-1,-9.108761E-3,-6.0877386E-2,7.9366535E-2,-5.2457196E-1,9.368629E-2,3.9726636E-1,-1.17545694E-1,6.536681E-2,-1.3708912E-1,2.033805E-1,2.2472355E-3,1.1356021E-3,-1.9146353E-1,-3.88833E-2,2.0705995E-1,-9.065446E-2,2.2654872E-2,-1.1639867E-1,8.0454044E-2],"categories":[],"categories_nodes":[],"categories_segments":[],"categories_sizes":[],"default_left":[0,0,0,0,0,0,0,0,0,0,0,0,0,0,0,0,0,0,0,0,0,0,0,0,0,0,0,0,0,0,0,0,0,0,0,0,0],"id":22,"left_children":[1,3,5,7,-1,9,11,13,15,-1,17,-1,19,21,23,25,27,-1,-1,-1,-1,29,-1,31,33,35,-1,-1,-1,-1,-1,-1,-1,-1,-1,-1,-1],"loss_changes":[4.4912657E-1,7.8787106E-1,2.5941002E-1,3.542913E-1,0E0,3.6221555E-1,5.162744E-1,5.7753855E-1,1.119092E0,0E0,1.1098325E-1,0E0,2.8514683E-1,1.0805749E0,1.2987831E0,5.2946997E-1,4.2752922E-1,0E0,0E0,0E0,0E0,3.5097957E-1,0E0,1.0642338E0,8.0236506E-1,6.9238293E-1,0E0,0E0,0E0,0E0,0E0,0E0,0E0,0E0,0E0,0E0,0E0],"parents":[2147483647,0,0,1,1,2,2,3,3,5,5,6,6,7,7,8,8,10,10,12,12,13,13,14,14,15,15,16,16,21,21,23,23,24,24,25,25],"right_children":[2,4,6,8,-1,10,12,14,16,-1,18,-1,20,22,24,26,28,-1,-1,-1,-1,30,-1,32,34,36,-1,-1,-1,-1,-1,-1,-1,-1,-1,-1,-1],"split_conditions":[1.55E2,1.5E2,1.7E1,1.3E2,-1.7083159E-1,7.2E1,3.35E1,6.1E1,3.4E1,-9.402896E-2,5E1,2.0022057E-1,1.66E2,6E0,6.8E1,7E0,3.95E1,1.02825046E-1,-9.108761E-3,-6.0877386E-2,7.9366535E-2,8.9E1,9.368629E-2,1.07E2,3.5E1,2E0,-1.3708912E-1,2.033805E-1,2.2472355E-3,1.1356021E-3,-1.9146353E-1,-3.88833E-2,2.0705995E-1,-9.065446E-2,2.2654872E-2,-1.1639867E-1,8.0454044E-2],"split_indices":[1,1,3,1,0,2,5,2,5,0,7,0,1,0,2,0,5,0,0,0,0,1,0,1,7,0,0,0,0,0,0,0,0,0,0,0,0],"split_type":[0,0,0,0,0,0,0,0,0,0,0,0,0,0,0,0,0,0,0,0,0,0,0,0,0,0,0,0,0,0,0,0,0,0,0,0,0],"sum_hessian":[5.3468376E1,4.528353E1,8.184843E0,4.352056E1,1.7629721E0,3.4649198E0,4.719923E0,3.234152E1,1.117904E1,1.3436285E0,2.1212914E0,1.4670433E0,3.2528796E0,6.156754E0,2.6184767E1,7.262965E0,3.9160745E0,1.0669833E0,1.0543079E0,1.5606704E0,1.6922092E0,4.8052917E0,1.3514627E0,5.3157725E0,2.0868994E1,5.398516E0,1.8644491E0,2.5916672E0,1.3244072E0,1.0216972E0,3.7835944E0,2.0986428E0,3.21713E0,1.0378373E1,1.049062E1,1.3863798E0,4.0121365E0],"tree_param":{"num_deleted":"0","num_feature":"8","num_nodes":"37","size_leaf_vector":"1"}},{"base_weights":[-6.866582E-3,-4.617562E-2,2.5380108E-1,2.172133E-3,-2.602003E-1,-4.7993843E-2,4.549191E-1,-3.8777986E-1,4.3566257E-2,8.280804E-2,-5.517812E-1,6.741417E-2,-1.1331641E-1,-1.9171434E-2,1.9241329E-1,-1.9927429E-1,4.038564E-2,8.608486E-2,-3.529903E-1,-9.97754E-2,1.17695406E-1,-2.4156044E-1,1.8912302E-3,1.9782212E-1,-9.9025056E-2,-2.030326E-1,6.0954902E-2,5.8182262E-2,-8.81527E-2,1.0707416E-2,1.4986457E-1,-9.6382044E-2,9.154596E-2],"categories":[],"categories_nodes":[],"categories_segments":[],"categories_sizes":[],"default_left":[0,0,0,0,0,0,0,0,0,0,0,0,0,0,0,0,0,0,0,0,0,0,0,0,0,0,0,0,0,0,0,0,0],"id":23,"left_children":[1,3,5,7,9,11,13,15,17,19,21,-1,-1,-1,-1,-1,-1,23,25,27,-1,-1,-1,29,31,-1,-1,-1,-1,-1,-1,-1,-1],"loss_changes":[5.5594385E-1,4.8689127E-1,4.5361763E-1,6.5174866E-1,9.1270226E-1,4.2202568E-1,4.631952E-1,6.491169E-1,6.4505154E-1,3.1337434E-1,6.8622756E-1,0E0,0E0,0E0,0E0,0E0,0E0,7.1721905E-1,8.0852854E-1,2.7640626E-1,0E0,0E0,0E0,1.027388E0,1.298344E0,0E0,0E0,0E0,0E0,0E0,0E0,0E0,0E0],"parents":[2147483647,0,0,1,1,2,2,3,3,4,4,5,5,6,6,7,7,8,8,9,9,10,10,17,17,18,18,19,19,23,23,24,24],"right_children":[2,4,6,8,10,12,14,16,18,20,22,-1,-1,-1,-1,-1,-1,24,26,28,-1,-1,-1,30,32,-1,-1,-1,-1,-1,-1,-1,-1],"split_conditions":[4.09E1,3.67E1,2.8E1,9.5E1,7.5E1,1.32E2,1.04E2,3.1E1,1E1,5E0,1.41E2,6.741417E-2,-1.1331641E-1,-1.9171434E-2,1.9241329E-1,-1.9927429E-1,4.038564E-2,2.5E1,2E1,1.03E2,1.17695406E-1,-2.4156044E-1,1.8912302E-3,6E0,3.42E1,-2.030326E-1,6.0954902E-2,5.8182262E-2,-8.81527E-2,1.0707416E-2,1.4986457E-1,-9.6382044E-2,9.154596E-2],"split_indices":[5,5,7,1,2,4,1,3,0,0,1,0,0,0,0,0,0,3,3,1,0,0,0,0,5,0,0,0,0,0,0,0,0],"split_type":[0,0,0,0,0,0,0,0,0,0,0,0,0,0,0,0,0,0,0,0,0,0,0,0,0,0,0,0,0,0,0,0,0],"sum_hessian":[5.211271E1,4.599887E1,6.1138363E0,3.833004E1,7.668831E0,2.7494357E0,3.3644006E0,2.8753076E0,3.5454735E1,3.8526614E0,3.8161695E0,1.6791484E0,1.0702873E0,1.0632261E0,2.3011744E0,1.7026726E0,1.1726348E0,3.2728516E1,2.7262168E0,2.8494015E0,1.0032599E0,2.3199246E0,1.4962448E0,2.036624E1,1.2362278E1,1.5860376E0,1.1401792E0,1.1339067E0,1.7154948E0,1.39751E1,6.39114E0,8.10864E0,4.2536373E0],"tree_param":{"num_deleted":"0","num_feature":"8","num_nodes":"33","size_leaf_vector":"1"}},{"base_weights":[-9.005119E-3,-1.2301668E-1,1.068697E-2,2.6717314E-1,-2.217879E-2,-9.739548E-3,1.8138541E-1,-4.4449186E-1,2.1904012E-2,6.818826E-2,-8.282681E-2,-1.6099045E-1,-2.3528451E-2,1.1728217E-1,-5.3556324E-3,-2.1874009E-1,5.4360416E-2,-1.2633336E-1,1.0989512E-2,2.7395988E-2,-1.618789E-1],"categories":[],"categories_nodes":[],"categories_segments":[],"categories_sizes":[],"default_left":[0,0,0,0,0,0,0,0,0,0,0,0,0,0,0,0,0,0,0,0,0],"id":24,"left_children":[1,-1,3,5,7,9,-1,11,13,-1,-1,-1,-1,-1,15,17,19,-1,-1,-1,-1],"loss_changes":[4.1307902E-1,0E0,4.2995656E-1,5.469424E-1,8.5702753E-1,3.2567504E-1,0E0,1.04595065E-1,4.2625162E-1,0E0,0E0,0E0,0E0,0E0,5.2477354E-1,4.805481E-1,7.57235E-1,0E0,0E0,0E0,0E0],"parents":[2147483647,0,0,2,2,3,3,4,4,5,5,7,7,8,8,14,14,15,15,16,16],"right_children":[2,-1,4,6,8,10,-1,12,14,-1,-1,-1,-1,-1,16,18,20,-1,-1,-1,-1],"split_conditions":[2.29E1,-1.2301668E-1,5.5E1,1.3E2,6.2E1,2.7E1,1.8138541E-1,3.3E1,6.4E1,6.818826E-2,-8.282681E-2,-1.6099045E-1,-2.3528451E-2,1.1728217E-1,2.7E1,3E1,1.318E0,-1.2633336E-1,1.0989512E-2,2.7395988E-2,-1.618789E-1],"split_indices":[5,0,2,1,2,7,0,7,2,0,0,0,0,0,7,3,6,0,0,0,0],"split_type":[0,0,0,0,0,0,0,0,0,0,0,0,0,0,0,0,0,0,0,0,0],"sum_hessian":[5.0750008E1,1.4474652E0,4.9302544E1,4.7902155E0,4.451233E1,3.1645074E0,1.6257082E0,3.3486984E0,4.1163628E1,1.7519872E0,1.4125202E0,2.3030348E0,1.0456636E0,1.9137833E0,3.9249847E1,8.000065E0,3.124978E1,4.1011047E0,3.8989596E0,3.0215824E1,1.0339577E0],"tree_param":{"num_deleted":"0","num_feature":"8","num_nodes":"21","size_leaf_vector":"1"}},{"base_weights":[-1.2310766E-2,-4.4491336E-2,2.0688227E-1,-2.4159586E-2,-1.3175713E-1,-7.5768046E-2,4.6138707E-1,-6.7022555E-2,1.7311944E-1,-1.0526132E-1,6.793668E-2,2.0591956E-1,2.0952439E-2,-3.2664633E-3,-3.5094658E-1,-1.0349845E-1,5.3156656E-1,3.693581E-2,-1.5136126E-1,-5.556317E-1,6.02028E-2,-3.0548406E-1,1.3618481E-1,1.8280897E-1,5.1142875E-2,2.1735128E-2,-1.4384866E-1,-2.2429726E-1,-1.0037779E-2,-1.4557551E-1,1.1508372E-2,1.18221186E-1,-5.0643988E-2],"categories":[],"categories_nodes":[],"categories_segments":[],"categories_sizes":[],"default_left":[0,0,0,0,0,0,0,0,0,0,0,0,0,0,0,0,0,0,0,0,0,0,0,0,0,0,0,0,0,0,0,0,0],"id":25,"left_children":[1,3,5,7,-1,9,11,13,15,-1,-1,-1,-1,17,19,21,23,25,-1,27,-1,29,31,-1,-1,-1,-1,-1,-1,-1,-1,-1,-1],"loss_changes":[3.690042E-1,3.5292822E-1,5.1743305E-1,3.848509E-1,0E0,4.150816E-1,2.7542037E-1,6.683069E-1,8.638742E-1,0E0,0E0,0E0,0E0,6.475912E-1,8.761551E-1,3.0503616E-1,5.134344E-4,5.817513E-1,0E0,4.968723E-1,0E0,2.2020191E-1,3.166584E-1,0E0,0E0,0E0,0E0,0E0,0E0,0E0,0E0,0E0,0E0],"parents":[2147483647,0,0,1,1,2,2,3,3,5,5,6,6,7,7,8,8,13,13,14,14,15,15,16,16,17,17,19,19,21,21,22,22],"right_children":[2,4,6,8,-1,10,12,14,16,-1,-1,-1,-1,18,20,22,24,26,-1,28,-1,30,32,-1,-1,-1,-1,-1,-1,-1,-1,-1,-1],"split_conditions":[4.09E1,4E1,8E1,7.19E-1,-1.3175713E-1,1.21E2,1.4E1,8.4E1,1.28E2,-1.0526132E-1,6.793668E-2,2.0591956E-1,2.0952439E-2,6.86E-1,1.42E2,4E0,1.32E2,6.1E1,-1.5136126E-1,7.9E1,6.02028E-2,3.19E1,7.2E1,1.8280897E-1,5.1142875E-2,2.1735128E-2,-1.4384866E-1,-2.2429726E-1,-1.0037779E-2,-1.4557551E-1,1.1508372E-2,1.18221186E-1,-5.0643988E-2],"split_indices":[5,5,2,6,0,1,4,2,1,0,0,0,0,6,1,0,4,7,0,4,0,5,2,0,0,0,0,0,0,0,0,0,0],"split_type":[0,0,0,0,0,0,0,0,0,0,0,0,0,0,0,0,0,0,0,0,0,0,0,0,0,0,0,0,0,0,0,0,0],"sum_hessian":[5.0008236E1,4.4301228E1,5.7070107E0,4.3140198E1,1.161029E0,3.0367362E0,2.6702745E0,3.5982513E1,7.1576843E0,1.505432E0,1.5313042E0,1.2175376E0,1.4527369E0,3.0210213E1,5.7723002E0,4.441435E0,2.716249E0,2.8824764E1,1.3854495E0,4.204799E0,1.5675012E0,2.2612796E0,2.1801555E0,1.6690822E0,1.0471668E0,2.7774445E1,1.0503191E0,2.758541E0,1.446258E0,1.2148745E0,1.046405E0,1.0230721E0,1.1570834E0],"tree_param":{"num_deleted":"0","num_feature":"8","num_nodes":"33","size_leaf_vector":"1"}},{"base_weights":[-1.3675755E-2,-1.9507843E-1,2.299301E-2,4.357301E-2,-2.9989427E-1,3.2106268E-1,-1.1566718E-2,-1.7886123E-2,-2.0531955E-1,-6.0702335E-2,1.6820444E-1,-1.0452732E-1,1.0128888E-2,9.943277E-2,-1.1398787E-1,-5.2698713E-2,1.987647E-1,-4.2088097E-3,-3.7875634E-1,3.020368E-1,-8.122102E-2,-2.4672275E-2,9.7212486E-2,-1.3977729E-1,-3.240602E-2,-3.0751064E-2,1.2422032E-1],"categories":[],"categories_nodes":[],"categories_segments":[],"categories_sizes":[],"default_left":[0,0,0,0,0,0,0,0,0,0,0,0,0,0,0,0,0,0,0,0,0,0,0,0,0,0,0],"id":26,"left_children":[1,3,5,-1,7,9,11,13,-1,-1,-1,-1,15,-1,-1,17,19,21,23,25,-1,-1,-1,-1,-1,-1,-1],"loss_changes":[3.368287E-1,3.4700114E-1,4.410629E-1,0E0,7.2835034E-1,6.710427E-1,2.8862873E-1,7.5416774E-1,0E0,0E0,0E0,0E0,4.5634726E-1,0E0,0E0,4.5710474E-1,5.4768896E-1,6.9946754E-1,3.8045526E-2,4.208439E-1,0E0,0E0,0E0,0E0,0E0,0E0,0E0],"parents":[2147483647,0,0,1,1,2,2,4,4,5,5,6,6,7,7,12,12,15,15,16,16,17,17,18,18,19,19],"right_children":[2,4,6,-1,8,10,12,14,-1,-1,-1,-1,16,-1,-1,18,20,22,24,26,-1,-1,-1,-1,-1,-1,-1],"split_conditions":[2.05E-1,2.6E1,2.43E-1,4.357301E-2,1.81E-1,1.21E2,2.54E-1,8E0,-2.0531955E-1,-6.0702335E-2,1.6820444E-1,-1.0452732E-1,4.2E1,9.943277E-2,-1.1398787E-1,2.28E2,1.64E2,1.56E2,1.56E2,1.01E2,-8.122102E-2,-2.4672275E-2,9.7212486E-2,-1.3977729E-1,-3.240602E-2,-3.0751064E-2,1.2422032E-1],"split_indices":[6,7,6,0,6,1,6,3,0,0,0,0,7,0,0,4,1,4,1,1,0,0,0,0,0,0,0],"split_type":[0,0,0,0,0,0,0,0,0,0,0,0,0,0,0,0,0,0,0,0,0,0,0,0,0,0,0],"sum_hessian":[4.896282E1,7.5066977E0,4.145612E1,1.6767701E0,5.829928E0,3.4459047E0,3.8010216E1,3.9669511E0,1.8629767E0,1.1310034E0,2.3149014E0,1.3887084E0,3.6621506E1,2.0620666E0,1.9048846E0,2.8012285E1,8.609221E0,2.5267515E1,2.744769E0,7.3493385E0,1.2598833E0,2.1020058E1,4.247458E0,1.5309142E0,1.2138549E0,1.6123246E0,5.7370143E0],"tree_param":{"num_deleted":"0","num_feature":"8","num_nodes":"27","size_leaf_vector":"1"}},{"base_weights":[-1.531869E-2,-4.625634E-2,2.0070958E-1,-1.6409736E-2,-2.6954105E-1,4.260801E-1,-6.1685767E-2,-4.328004E-2,1.385487E-1,1.5219918E-2,-1.4162207E-1,1.6924243E-1,3.4459338E-2,-9.263809E-2,6.535812E-2,-9.397071E-3,-1.5134293E-1,-5.808987E-2,2.2333364E-1,1.9623827E-2,-7.536855E-2,-9.074205E-2,1.2710942E-1],"categories":[],"categories_nodes":[],"categories_segments":[],"categories_sizes":[],"default_left":[0,0,0,0,0,0,0,0,0,0,0,0,0,0,0,0,0,0,0,0,0,0,0],"id":27,"left_children":[1,3,5,7,9,11,13,15,-1,-1,-1,-1,-1,-1,-1,17,-1,19,21,-1,-1,-1,-1],"loss_changes":[3.37205E-1,2.8701445E-1,4.008343E-1,5.2937496E-1,3.542146E-1,8.703238E-2,3.2977062E-1,5.96033E-1,0E0,0E0,0E0,0E0,0E0,0E0,0E0,4.3037778E-1,0E0,7.619326E-1,8.213171E-1,0E0,0E0,0E0,0E0],"parents":[2147483647,0,0,1,1,2,2,3,3,4,4,5,5,6,6,7,7,15,15,17,17,18,18],"right_children":[2,4,6,8,10,12,14,16,-1,-1,-1,-1,-1,-1,-1,18,-1,20,22,-1,-1,-1,-1],"split_conditions":[4.09E1,3.85E1,4.45E1,3.77E1,7.5E1,1.4E1,8E1,3.67E1,1.385487E-1,1.5219918E-2,-1.4162207E-1,1.6924243E-1,3.4459338E-2,-9.263809E-2,6.535812E-2,7.19E-1,-1.5134293E-1,3.85E-1,2.74E1,1.9623827E-2,-7.536855E-2,-9.074205E-2,1.2710942E-1],"split_indices":[5,5,5,5,2,4,2,5,0,0,0,0,0,0,0,6,0,6,5,0,0,0,0],"split_type":[0,0,0,0,0,0,0,0,0,0,0,0,0,0,0,0,0,0,0,0,0,0,0],"sum_hessian":[4.8064926E1,4.273122E1,5.333708E0,3.8639717E1,4.091502E0,2.533706E0,2.8000016E0,3.7445316E1,1.1943997E0,1.8753808E0,2.2161214E0,1.192145E0,1.3415611E0,1.4306967E0,1.369305E0,3.5833122E1,1.612196E0,3.0253721E1,5.579399E0,1.885695E1,1.1396771E1,1.3988484E0,4.1805506E0],"tree_param":{"num_deleted":"0","num_feature":"8","num_nodes":"23","size_leaf_vector":"1"}},{"base_weights":[-1.0559276E-2,-2.0729005E-1,2.1004392E-2,4.1020595E-2,-4.5314318E-1,-9.927975E-2,9.533468E-2,-1.1990012E-1,2.9958555E-1,-1.9388796E-1,-9.242014E-4,4.428996E-1,-2.070725E-1,-3.0080676E-1,1.7035855E-1,1.6514866E-1,-1.6091114E-2,2.58924E-2,1.7407441E-1,-1.1854389E-1,-1.8772732E-1,-1.6989991E-1,-3.5473462E-2,4.752416E-1,7.305544E-2,6.860516E-2,-3.638622E-1,-8.751138E-2,6.859839E-2,-2.898769E-2,2.2651632E-1,-2.974725E-1,1.7130968E-1,8.444233E-2,-1.0031498E-1,2.0913567E-2,-1.6469969E-1,3.307595E-2,-1.3662036E-1,2.1950583E-1,2.3862265E-2],"categories":[],"categories_nodes":[],"categories_segments":[],"categories_sizes":[],"default_left":[0,0,0,0,0,0,0,0,0,0,0,0,0,0,0,0,0,0,0,0,0,0,0,0,0,0,0,0,0,0,0,0,0,0,0,0,0,0,0,0,0],"id":28,"left_children":[1,3,5,7,9,11,13,-1,15,-1,-1,17,19,21,23,-1,-1,-1,-1,25,-1,-1,27,29,31,33,35,-1,-1,-1,-1,37,39,-1,-1,-1,-1,-1,-1,-1,-1],"loss_changes":[3.0483976E-1,4.326441E-1,3.9041674E-1,6.087194E-1,3.0148965E-1,1.0714265E0,8.490769E-1,0E0,3.1987736E-1,0E0,0E0,1.0168564E-1,4.6938336E-1,3.0653664E-1,6.5379506E-1,0E0,0E0,0E0,0E0,6.373712E-1,0E0,0E0,2.9584497E-1,9.423852E-1,7.3449653E-1,8.15387E-1,5.1436067E-1,0E0,0E0,0E0,0E0,3.271358E-1,7.3759127E-1,0E0,0E0,0E0,0E0,0E0,0E0,0E0,0E0],"parents":[2147483647,0,0,1,1,2,2,3,3,4,4,5,5,6,6,8,8,11,11,12,12,13,13,14,14,19,19,22,22,23,23,24,24,25,25,26,26,31,31,32,32],"right_children":[2,4,6,8,10,12,14,-1,16,-1,-1,18,20,22,24,-1,-1,-1,-1,26,-1,-1,28,30,32,34,36,-1,-1,-1,-1,38,40,-1,-1,-1,-1,-1,-1,-1,-1],"split_conditions":[1.94E-1,8E0,1.7E1,2.9E1,4E1,2.4E1,2.5E1,-1.1990012E-1,1.22E2,-1.9388796E-1,-9.242014E-4,3E0,1.4E1,3.2E1,2.5E1,1.6514866E-1,-1.6091114E-2,2.58924E-2,1.7407441E-1,3.31E1,-1.8772732E-1,-1.6989991E-1,1.28E2,1.15E2,3.07E1,1.35E2,2.94E-1,-8.751138E-2,6.859839E-2,-2.898769E-2,2.2651632E-1,4.11E-1,3.19E1,8.444233E-2,-1.0031498E-1,2.0913567E-2,-1.6469969E-1,3.307595E-2,-1.3662036E-1,2.1950583E-1,2.3862265E-2],"split_indices":[6,3,3,5,7,7,7,0,1,0,0,0,4,3,3,0,0,0,0,5,0,0,1,1,5,1,6,0,0,0,0,6,5,0,0,0,0,0,0,0,0],"split_type":[0,0,0,0,0,0,0,0,0,0,0,0,0,0,0,0,0,0,0,0,0,0,0,0,0,0,0,0,0,0,0,0,0,0,0,0,0,0,0,0,0],"sum_hessian":[4.739095E1,5.78247E0,4.160848E1,3.2913601E0,2.49111E0,1.5763583E1,2.5844894E1,1.0152674E0,2.2760928E0,1.4379767E0,1.0531334E0,2.098695E0,1.3664888E1,3.6360934E0,2.2208801E1,1.0042406E0,1.271852E0,1.0363784E0,1.0623167E0,1.2339008E1,1.3258797E0,1.2503816E0,2.3857117E0,4.433387E0,1.7775414E1,7.407953E0,4.931056E0,1.1579921E0,1.2277197E0,1.6716435E0,2.7617435E0,3.3006623E0,1.4474751E1,5.0447254E0,2.3632271E0,1.6620766E0,3.2689795E0,1.0058168E0,2.2948456E0,1.0556139E0,1.3419138E1],"tree_param":{"num_deleted":"0","num_feature":"8","num_nodes":"41","size_leaf_vector":"1"}},{"base_weights":[-1.19052995E-2,-3.8135655E-2,2.395185E-1,-2.527956E-1,-2.8084035E-3,-6.848176E-4,1.3572872E-1,-6.1220936E-3,-4.9506235E-1,2.9685438E-2,-2.3723647E-1,-7.341728E-2,7.3175445E-2,-9.87349E-2,2.1296974E-1,-1.788305E-1,-4.266551E-2,1.655092E-3,9.654222E-2,-4.3584847E-1,4.466098E-2,1.11631334E-1,-1.5204199E-2,6.837579E-2,-1.1597293E-1,-1.9281523E-1,2.623492E-3,5.91178E-4,2.0416765E-1,-7.640335E-2,1.1260627E-1],"categories":[],"categories_nodes":[],"categories_segments":[],"categories_sizes":[],"default_left":[0,0,0,0,0,0,0,0,0,0,0,0,0,0,0,0,0,0,0,0,0,0,0,0,0,0,0,0,0,0,0],"id":29,"left_children":[1,3,5,7,9,11,-1,13,15,17,19,-1,-1,-1,21,-1,-1,23,-1,25,-1,-1,-1,27,29,-1,-1,-1,-1,-1,-1],"loss_changes":[3.2032925E-1,3.298618E-1,2.353149E-1,3.6443812E-1,2.9987937E-1,2.4818332E-1,0E0,3.573504E-1,2.5374055E-2,2.8320554E-1,4.3228918E-1,0E0,0E0,0E0,1.458092E-1,0E0,0E0,2.639627E-1,0E0,3.2000846E-1,0E0,0E0,0E0,8.704436E-1,9.255223E-1,0E0,0E0,0E0,0E0,0E0,0E0],"parents":[2147483647,0,0,1,1,2,2,3,3,4,4,5,5,7,7,8,8,9,9,10,10,14,14,17,17,19,19,23,23,24,24],"right_children":[2,4,6,8,10,12,-1,14,16,18,20,-1,-1,-1,22,-1,-1,24,-1,26,-1,-1,-1,28,30,-1,-1,-1,-1,-1,-1],"split_conditions":[1.67E2,1.94E-1,2.6E1,8E0,1.96E2,7.2E1,1.3572872E-1,3.04E1,1.06E2,1.75E2,3.94E1,-7.341728E-2,7.3175445E-2,-9.87349E-2,3.29E1,-1.788305E-1,-4.266551E-2,5.57E-1,9.654222E-2,1.44E2,4.466098E-2,1.11631334E-1,-1.5204199E-2,5.14E-1,8E0,-1.9281523E-1,2.623492E-3,5.91178E-4,2.0416765E-1,-7.640335E-2,1.1260627E-1],"split_indices":[1,6,3,3,4,2,0,5,4,4,5,0,0,0,5,0,0,6,0,1,0,0,0,6,0,0,0,0,0,0,0],"split_type":[0,0,0,0,0,0,0,0,0,0,0,0,0,0,0,0,0,0,0,0,0,0,0,0,0,0,0,0,0,0,0],"sum_hessian":[4.6186974E1,4.259181E1,3.595165E0,5.148996E0,3.744281E1,2.157679E0,1.4374859E0,3.0593092E0,2.0896869E0,3.3651745E1,3.7910643E0,1.0798354E0,1.0778437E0,1.0334985E0,2.0258107E0,1.0885526E0,1.0011343E0,3.1623047E1,2.0287004E0,2.4182787E0,1.3727856E0,1.0067803E0,1.0190303E0,2.0444996E1,1.1178051E1,1.3462434E0,1.0720354E0,1.9349339E1,1.0956576E0,9.092758E0,2.0852926E0],"tree_param":{"num_deleted":"0","num_feature":"8","num_nodes":"31","size_leaf_vector":"1"}},{"base_weights":[-6.3945474E-3,-1.06433995E-1,1.1468496E-2,2.1485347E-1,-1.4566353E-2,-1.7737783E-2,1.5327114E-1,-3.599054E-1,2.2111673E-2,5.708846E-2,-7.5250916E-2,-1.471897E-1,-4.1406944E-2,1.03457086E-1,-3.1914026E-3,-2.1486005E-1,5.51096E-2,-9.7288184E-2,1.8407073E-2,7.251593E-2,-1.0411338E-2],"categories":[],"categories_nodes":[],"categories_segments":[],"categories_sizes":[],"default_left":[0,0,0,0,0,0,0,0,0,0,0,0,0,0,0,0,0,0,0,0,0],"id":30,"left_children":[1,-1,3,5,7,9,-1,11,13,-1,-1,-1,-1,-1,15,17,19,-1,-1,-1,-1],"loss_changes":[2.9245675E-1,0E0,2.416691E-1,3.65456E-1,5.2567506E-1,2.3515293E-1,0E0,4.7789037E-2,3.1053716E-1,0E0,0E0,0E0,0E0,0E0,4.5767018E-1,2.6189825E-1,4.964692E-1,0E0,0E0,0E0,0E0],"parents":[2147483647,0,0,2,2,3,3,4,4,5,5,7,7,8,8,14,14,15,15,16,16],"right_children":[2,-1,4,6,8,10,-1,12,14,-1,-1,-1,-1,-1,16,18,20,-1,-1,-1,-1],"split_conditions":[2.29E1,-1.06433995E-1,5.5E1,1.3E2,6.2E1,2.7E1,1.5327114E-1,2.9E-1,6.4E1,5.708846E-2,-7.5250916E-2,-1.471897E-1,-4.1406944E-2,1.03457086E-1,2.7E1,6.14E-1,4E0,-9.7288184E-2,1.8407073E-2,7.251593E-2,-1.0411338E-2],"split_indices":[5,0,2,1,2,7,0,6,2,0,0,0,0,0,7,6,0,0,0,0,0],"split_type":[0,0,0,0,0,0,0,0,0,0,0,0,0,0,0,0,0,0,0,0,0],"sum_hessian":[4.5340607E1,1.2914848E0,4.404912E1,4.175723E0,3.9873398E1,2.8649595E0,1.3107635E0,2.9821973E0,3.68912E1,1.6109078E0,1.2540517E0,1.1143966E0,1.8678007E0,1.7638555E0,3.5127346E1,7.005975E0,2.8121372E1,4.8932657E0,2.112709E0,8.587485E0,1.9533886E1],"tree_param":{"num_deleted":"0","num_feature":"8","num_nodes":"21","size_leaf_vector":"1"}},{"base_weights":[-6.3852067E-3,-1.9827375E-1,2.000605E-2,-1.5739702E-1,-8.2158875E-3,2.984204E-1,-6.91811E-3,-7.6898195E-2,1.7383811E-1,1.2296674E-2,1.3869332E-1,-1.0587933E-1,2.1787515E-2,1.1289454E-1,-2.8073791E-2,1.3747884E-1,-4.7726054E-2,-3.2848606E-3,4.1254455E-1,-4.455976E-1,4.2680945E-2,-4.999674E-2,7.760384E-2,1.5991971E-1,-5.235487E-4,3.0011961E-2,-1.9486983E-1,7.045039E-2,-2.7309434E-2],"categories":[],"categories_nodes":[],"categories_segments":[],"categories_sizes":[],"default_left":[0,0,0,0,0,0,0,0,0,0,0,0,0,0,0,0,0,0,0,0,0,0,0,0,0,0,0,0,0],"id":31,"left_children":[1,3,5,-1,7,9,11,-1,13,-1,-1,-1,15,-1,-1,17,19,21,23,25,27,-1,-1,-1,-1,-1,-1,-1,-1],"loss_changes":[2.35998E-1,3.4500986E-1,3.108039E-1,0E0,2.5120267E-1,1.352331E-1,3.9041317E-1,0E0,2.1035308E-1,0E0,0E0,0E0,3.0027905E-1,0E0,0E0,5.4209995E-1,8.6636025E-1,4.8093936E-1,2.373771E-1,5.6012803E-1,5.3800905E-1,0E0,0E0,0E0,0E0,0E0,0E0,0E0,0E0],"parents":[2147483647,0,0,1,1,2,2,4,4,5,5,6,6,8,8,12,12,15,15,16,16,17,17,18,18,19,19,20,20],"right_children":[2,4,6,-1,8,10,12,-1,14,-1,-1,-1,16,-1,-1,18,20,22,24,26,28,-1,-1,-1,-1,-1,-1,-1,-1],"split_conditions":[2.64E1,3E0,5.2E1,-1.5739702E-1,1.25E2,2.2E1,9E1,-7.6898195E-2,7.4E1,1.2296674E-2,1.3869332E-1,-1.0587933E-1,1.19E2,1.1289454E-1,-2.8073791E-2,1.12E2,1.24E2,6.14E-1,3.46E1,2E0,1.37E2,-4.999674E-2,7.760384E-2,1.5991971E-1,-5.235487E-4,3.0011961E-2,-1.9486983E-1,7.045039E-2,-2.7309434E-2],"split_indices":[5,0,2,0,1,3,1,0,2,0,0,0,1,0,0,1,1,6,5,0,1,0,0,0,0,0,0,0,0],"split_type":[0,0,0,0,0,0,0,0,0,0,0,0,0,0,0,0,0,0,0,0,0,0,0,0,0,0,0,0,0],"sum_hessian":[4.4818146E1,4.631325E0,4.018682E1,1.0565021E0,3.5748224E0,2.654431E0,3.7532387E1,1.3402691E0,2.2345533E0,1.5188284E0,1.1356028E0,2.009949E0,3.5522438E1,1.0399374E0,1.194616E0,1.2965781E1,2.2556658E1,9.230282E0,3.7354996E0,3.4490337E0,1.9107624E1,5.9090166E0,3.3212655E0,2.6716044E0,1.0638952E0,1.0771296E0,2.3719041E0,7.5300994E0,1.1577524E1],"tree_param":{"num_deleted":"0","num_feature":"8","num_nodes":"29","size_leaf_vector":"1"}},{"base_weights":[-6.0214214E-3,-3.0021168E-2,2.2156632E-1,2.406357E-2,-1.3285396E-1,-3.8030352E-3,1.18115954E-1,-2.5830496E-2,1.4056067E-1,-2.1359351E-1,2.265933E-1,1.999424E-2,-3.455214E-1,-3.906509E-2,-4.274603E-1,5.1293503E-3,9.64743E-2,1.3826762E-1,-1.6075161E-1,-1.3787492E-1,-2.8444992E-2,-3.183049E-1,3.5252172E-1,-1.199236E-2,-5.863468E-1,-6.855552E-3,1.2239028E-1,-1.1587323E-1,6.976192E-2,-1.5704325E-1,6.6333644E-2,1.8882816E-1,-5.9173893E-2,-2.1420242E-1,-3.9731905E-2],"categories":[],"categories_nodes":[],"categories_segments":[],"categories_sizes":[],"default_left":[0,0,0,0,0,0,0,0,0,0,0,0,0,0,0,0,0,0,0,0,0,0,0,0,0,0,0,0,0,0,0,0,0,0,0],"id":32,"left_children":[1,3,5,7,9,-1,-1,11,-1,13,15,17,19,21,23,-1,-1,25,27,-1,-1,29,31,-1,33,-1,-1,-1,-1,-1,-1,-1,-1,-1,-1],"loss_changes":[2.5309658E-1,2.3509738E-1,1.83369E-1,6.368447E-1,4.6993005E-1,0E0,0E0,3.9184377E-1,0E0,4.4522172E-1,5.717264E-2,5.337239E-1,5.2188694E-2,9.7768515E-1,3.127364E-1,0E0,0E0,6.6115546E-1,9.701346E-1,0E0,0E0,6.852484E-1,6.9795173E-1,0E0,1.2559402E-1,0E0,0E0,0E0,0E0,0E0,0E0,0E0,0E0,0E0,0E0],"parents":[2147483647,0,0,1,1,2,2,3,3,4,4,7,7,9,9,10,10,11,11,12,12,13,13,14,14,17,17,18,18,21,21,22,22,24,24],"right_children":[2,4,6,8,10,-1,-1,12,-1,14,16,18,20,22,24,-1,-1,26,28,-1,-1,30,32,-1,34,-1,-1,-1,-1,-1,-1,-1,-1,-1,-1],"split_conditions":[1.67E2,1E2,7.2E1,8.8E1,8E0,-3.8030352E-3,1.18115954E-1,4.9E1,1.4056067E-1,4E0,1.32E2,7.8E1,7.4E1,1.28E2,3.19E1,5.1293503E-3,9.64743E-2,7.2E1,5.14E-1,-1.3787492E-1,-2.8444992E-2,8.2E1,7.4E1,-1.199236E-2,3.2E1,-6.855552E-3,1.2239028E-1,-1.1587323E-1,6.976192E-2,-1.5704325E-1,6.6333644E-2,1.8882816E-1,-5.9173893E-2,-2.1420242E-1,-3.9731905E-2],"split_indices":[1,4,2,4,0,0,0,4,0,0,4,2,4,1,5,0,0,2,6,0,0,2,2,0,3,0,0,0,0,0,0,0,0,0,0],"split_type":[0,0,0,0,0,0,0,0,0,0,0,0,0,0,0,0,0,0,0,0,0,0,0,0,0,0,0,0,0,0,0,0,0,0,0],"sum_hessian":[4.41195E1,4.069608E1,3.4234226E0,2.7171345E1,1.3524733E1,1.8426111E0,1.5808114E0,2.5275892E1,1.8954526E0,1.1375356E1,2.1493766E0,2.292698E1,2.3489132E0,6.914974E0,4.460382E0,1.0386447E0,1.110732E0,1.4000553E1,8.926427E0,1.0417776E0,1.3071356E0,4.1457725E0,2.7692018E0,1.661057E0,2.799325E0,9.337547E0,4.663006E0,5.684915E0,3.2415118E0,3.0248072E0,1.1209654E0,1.7452593E0,1.0239425E0,1.7375993E0,1.0617257E0],"tree_param":{"num_deleted":"0","num_feature":"8","num_nodes":"35","size_leaf_vector":"1"}},{"base_weights":[-3.987891E-3,-1.2167405E-1,3.9058357E-2,-8.293449E-3,-4.270605E-1,7.593535E-3,1.353025E-1,-1.3723984E-1,1.4062262E-1,-2.9419908E-2,-1.6182034E-1,2.977814E-1,-2.7442506E-2,-1.6530038E-1,-4.9562203E-3,1.2107917E-1,7.497549E-3,-8.1080936E-2,-5.579692E-4,3.046144E-1,-3.1544194E-1,1.355861E-1,-9.899607E-2,-2.2113395E-3,1.461064E-1,8.259158E-3,-1.5450735E-1,7.0197254E-2,-1.1000552E-1,-8.407261E-2,3.0859297E-3],"categories":[],"categories_nodes":[],"categories_segments":[],"categories_sizes":[],"default_left":[0,0,0,0,0,0,0,0,0,0,0,0,0,0,0,0,0,0,0,0,0,0,0,0,0,0,0,0,0,0,0],"id":33,"left_children":[1,3,5,7,9,11,-1,13,-1,-1,-1,15,17,-1,19,-1,-1,-1,21,23,25,27,29,-1,-1,-1,-1,-1,-1,-1,-1],"loss_changes":[2.279476E-1,4.1342157E-1,4.2452174E-1,6.672502E-1,6.687462E-2,3.3036485E-1,0E0,4.619323E-1,0E0,0E0,0E0,9.08936E-2,1.9042109E-1,0E0,8.1138605E-1,0E0,0E0,0E0,3.7907544E-1,2.4460733E-1,3.0213597E-1,6.725461E-1,3.2796973E-1,0E0,0E0,0E0,0E0,0E0,0E0,0E0,0E0],"parents":[2147483647,0,0,1,1,2,2,3,3,4,4,5,5,7,7,11,11,12,12,14,14,18,18,19,19,20,20,21,21,22,22],"right_children":[2,4,6,8,10,12,-1,14,-1,-1,-1,16,18,-1,20,-1,-1,-1,22,24,26,28,30,-1,-1,-1,-1,-1,-1,-1,-1],"split_conditions":[2.97E1,5.5E1,5.3E1,4.9E1,2.52E1,5.4E1,1.353025E-1,2.12E-1,1.4062262E-1,-2.9419908E-2,-1.6182034E-1,2.7E1,6.1E1,-1.6530038E-1,4.35E-1,1.2107917E-1,7.497549E-3,-8.1080936E-2,1.19E2,2.95E-1,2.72E1,8.74E-1,1.3E2,-2.2113395E-3,1.461064E-1,8.259158E-3,-1.5450735E-1,7.0197254E-2,-1.1000552E-1,-8.407261E-2,3.0859297E-3],"split_indices":[5,7,7,7,5,2,0,6,0,0,0,7,2,0,6,0,0,0,1,6,5,6,1,0,0,0,0,0,0,0,0],"split_type":[0,0,0,0,0,0,0,0,0,0,0,0,0,0,0,0,0,0,0,0,0,0,0,0,0,0,0,0,0,0,0],"sum_hessian":[4.3057938E1,1.1042296E1,3.201564E1,8.801665E0,2.2406306E0,3.0689968E1,1.3256731E0,7.489502E0,1.3121638E0,1.047098E0,1.1935326E0,2.4983082E0,2.819166E1,1.0475708E0,6.441931E0,1.4545616E0,1.0437466E0,1.9077193E0,2.6283941E1,3.235188E0,3.206743E0,1.0871216E1,1.5412725E1,1.5476704E0,1.6875176E0,1.4967368E0,1.7100061E0,9.536887E0,1.3343282E0,5.2090654E0,1.020366E1],"tree_param":{"num_deleted":"0","num_feature":"8","num_nodes":"31","size_leaf_vector":"1"}},{"base_weights":[-6.9214543E-3,-3.388448E-2,1.7883727E-1,-1.286213E-2,-1.08875684E-1,3.906137E-1,-6.7587495E-2,5.0858604E-3,-9.204695E-2,1.4724883E-1,3.25986E-2,-7.871567E-2,4.7284324E-2,-2.7548708E-2,1.9457178E-1,1.6130902E-2,-3.2866126E-1,4.9059632E-1,-1.6395594E-1,1.900165E-2,-8.516434E-2,-1.6014329E-1,1.3825764E-2,3.7183095E-2,1.8495703E-1,-1.1123145E-1,3.0345835E-2],"categories":[],"categories_nodes":[],"categories_segments":[],"categories_sizes":[],"default_left":[0,0,0,0,0,0,0,0,0,0,0,0,0,0,0,0,0,0,0,0,0,0,0,0,0,0,0],"id":34,"left_children":[1,3,5,7,-1,9,11,13,-1,-1,-1,-1,-1,15,17,19,21,23,25,-1,-1,-1,-1,-1,-1,-1,-1],"loss_changes":[2.2321849E-1,2.630376E-1,3.2151276E-1,1.989604E-1,0E0,3.6767155E-2,1.9341141E-1,2.294942E-1,0E0,0E0,0E0,0E0,0E0,4.234991E-1,6.58787E-1,4.2475837E-1,3.3787152E-1,7.2965086E-2,2.1372312E-1,0E0,0E0,0E0,0E0,0E0,0E0,0E0,0E0],"parents":[2147483647,0,0,1,1,2,2,3,3,5,5,6,6,7,7,13,13,14,14,15,15,16,16,17,17,18,18],"right_children":[2,4,6,8,-1,10,12,14,-1,-1,-1,-1,-1,16,18,20,22,24,26,-1,-1,-1,-1,-1,-1,-1,-1],"split_conditions":[4.09E1,3.96E1,4.45E1,6.3E1,-1.08875684E-1,1.4E1,8E1,5E1,-9.204695E-2,1.4724883E-1,3.25986E-2,-7.871567E-2,4.7284324E-2,1.92E2,7E0,8.5E1,1.55E2,2.74E1,8.2E1,1.900165E-2,-8.516434E-2,-1.6014329E-1,1.3825764E-2,3.7183095E-2,1.8495703E-1,-1.1123145E-1,3.0345835E-2],"split_indices":[5,5,5,7,0,4,2,7,0,0,0,0,0,4,0,2,1,5,2,0,0,0,0,0,0,0,0],"split_type":[0,0,0,0,0,0,0,0,0,0,0,0,0,0,0,0,0,0,0,0,0,0,0,0,0,0,0],"sum_hessian":[4.2357014E1,3.770211E1,4.654902E0,3.6414635E1,1.2874777E0,2.1887639E0,2.4661381E0,3.52454E1,1.1692332E0,1.0682439E0,1.12052E0,1.2337985E0,1.2323396E0,3.0796097E1,4.449302E0,2.772126E1,3.0748372E0,2.2353137E0,2.2139888E0,2.463391E1,3.0873518E0,1.7127578E0,1.3620795E0,1.0787231E0,1.1565906E0,1.0198351E0,1.1941537E0],"tree_param":{"num_deleted":"0","num_feature":"8","num_nodes":"27","size_leaf_vector":"1"}},{"base_weights":[-7.8079402E-3,-4.6056196E-2,1.2426136E-1,8.888585E-3,-2.8628036E-1,-1.5261944E-1,2.7480268E-1,5.300677E-2,-2.9306504E-1,-4.9696022E-1,-1.1719772E-2,-1.224256E-1,2.3434397E-2,5.334986E-1,4.468629E-2,-1.9416042E-1,1.05969064E-1,-1.7343104E-1,5.2482005E-2,-1.8722315E-1,-4.5760058E-2,9.588451E-2,-1.20088875E-1,2.0197655E-1,3.6820333E-2,2.684204E-1,-9.07265E-2,-4.1310233E-1,6.964708E-2,1.5187731E-1,-2.0543607E-1,-3.2197293E-2,1.5346928E-1,-1.9046828E-2,-1.5855688E-1,1.0965074E-2,1.1284115E-1,-1.3216063E-1,3.9726272E-2],"categories":[],"categories_nodes":[],"categories_segments":[],"categories_sizes":[],"default_left":[0,0,0,0,0,0,0,0,0,0,0,0,0,0,0,0,0,0,0,0,0,0,0,0,0,0,0,0,0,0,0,0,0,0,0,0,0,0,0],"id":35,"left_children":[1,3,5,7,9,11,13,15,17,19,21,-1,-1,23,25,27,29,-1,-1,-1,-1,-1,-1,-1,-1,31,-1,33,-1,35,37,-1,-1,-1,-1,-1,-1,-1,-1],"loss_changes":[2.218718E-1,4.501248E-1,4.537463E-1,3.961024E-1,3.6104536E-1,2.7488512E-1,3.7840933E-1,3.5795218E-1,6.073906E-1,6.0869932E-2,6.143349E-1,0E0,0E0,9.4732046E-2,4.4365254E-1,5.533608E-1,3.438784E-1,0E0,0E0,0E0,0E0,0E0,0E0,0E0,0E0,3.6259532E-1,0E0,1.116271E-1,0E0,4.9411306E-1,3.1530395E-1,0E0,0E0,0E0,0E0,0E0,0E0,0E0,0E0],"parents":[2147483647,0,0,1,1,2,2,3,3,4,4,5,5,6,6,7,7,8,8,9,9,10,10,13,13,14,14,15,15,16,16,25,25,27,27,29,29,30,30],"right_children":[2,4,6,8,10,12,14,16,18,20,22,-1,-1,24,26,28,30,-1,-1,-1,-1,-1,-1,-1,-1,32,-1,34,-1,36,38,-1,-1,-1,-1,-1,-1,-1,-1],"split_conditions":[1.44E2,1E2,2.9E1,1E1,1.27E2,1.28E2,1.23E2,1E2,2.4E1,4E0,1.5E2,-1.224256E-1,2.3434397E-2,1.82E2,6.19E-1,3.82E1,5.5E1,-1.7343104E-1,5.2482005E-2,-1.8722315E-1,-4.5760058E-2,9.588451E-2,-1.20088875E-1,2.0197655E-1,3.6820333E-2,1.48E2,-9.07265E-2,2.72E-1,6.964708E-2,6E0,2.69E-1,-3.2197293E-2,1.5346928E-1,-1.9046828E-2,-1.5855688E-1,1.0965074E-2,1.1284115E-1,-1.3216063E-1,3.9726272E-2],"split_indices":[4,4,7,0,1,1,1,1,3,0,1,0,0,4,6,5,7,0,0,0,0,0,0,0,0,1,0,6,0,0,6,0,0,0,0,0,0,0,0],"split_type":[0,0,0,0,0,0,0,0,0,0,0,0,0,0,0,0,0,0,0,0,0,0,0,0,0,0,0,0,0,0,0,0,0,0,0,0,0,0,0],"sum_hessian":[4.1789703E1,3.2909996E1,8.879708E0,2.756764E1,5.342354E0,3.122639E0,5.757069E0,2.4772593E1,2.7950482E0,2.564502E0,2.7778516E0,1.1171288E0,2.00551E0,2.0895832E0,3.6674862E0,3.9010336E0,2.087156E1,1.5908755E0,1.2041727E0,1.2801205E0,1.2843815E0,1.5951539E0,1.1826977E0,1.0823114E0,1.0072718E0,2.3679075E0,1.2995787E0,2.5978603E0,1.3031734E0,1.8636408E1,2.2351503E0,1.1497412E0,1.2181662E0,1.0295097E0,1.5683507E0,1.3075321E1,5.561087E0,1.1387999E0,1.0963504E0],"tree_param":{"num_deleted":"0","num_feature":"8","num_nodes":"39","size_leaf_vector":"1"}},{"base_weights":[-1.2943405E-2,-1.9326936E-1,1.2182363E-2,2.091592E-2,-1.3686883E-1,-1.7314415E-1,4.4083945E-2,5.3771086E-2,-5.5185527E-2,-1.233967E-1,2.9785123E-2,3.5603625E-1,7.94166E-3,6.371392E-2,-7.550736E-2,1.2295865E-2,1.6359942E-1,-2.0741081E-1,4.7043923E-2,5.5370294E-2,-1.764635E-1,1.1931341E-1,-1.0877009E-1,9.247081E-2,-9.5784016E-2,5.369932E-4,1.0946662E-1,-8.16402E-2,5.4728214E-2],"categories":[],"categories_nodes":[],"categories_segments":[],"categories_sizes":[],"default_left":[0,0,0,0,0,0,0,0,0,0,0,0,0,0,0,0,0,0,0,0,0,0,0,0,0,0,0,0,0],"id":36,"left_children":[1,3,5,7,-1,9,11,-1,-1,-1,13,15,17,-1,-1,-1,-1,19,21,23,-1,25,27,-1,-1,-1,-1,-1,-1],"loss_changes":[1.9129257E-1,3.0011287E-1,2.2958602E-1,1.5620358E-1,0E0,2.8853375E-1,3.6726692E-1,0E0,0E0,0E0,2.6001292E-1,1.7954555E-1,2.6608482E-1,0E0,0E0,0E0,0E0,5.191571E-1,3.12254E-1,4.575699E-1,0E0,5.371118E-1,4.75134E-1,0E0,0E0,0E0,0E0,0E0,0E0],"parents":[2147483647,0,0,1,1,2,2,3,3,5,5,6,6,10,10,11,11,12,12,17,17,18,18,19,19,21,21,22,22],"right_children":[2,4,6,8,-1,10,12,-1,-1,-1,14,16,18,-1,-1,-1,-1,20,22,24,-1,26,28,-1,-1,-1,-1,-1,-1],"split_conditions":[2.64E1,1.4E1,2.5E1,2.39E1,-1.3686883E-1,3.33E1,2.6E1,5.3771086E-2,-5.5185527E-2,-1.233967E-1,2.4E1,1.2E2,2.03E-1,6.371392E-2,-7.550736E-2,1.2295865E-2,1.6359942E-1,1.81E-1,1.37E2,2.5E1,-1.764635E-1,1.24E2,4.1E1,9.247081E-2,-9.5784016E-2,5.369932E-4,1.0946662E-1,-8.16402E-2,5.4728214E-2],"split_indices":[5,3,7,5,0,5,7,0,0,0,7,1,6,0,0,0,0,6,1,3,0,1,7,0,0,0,0,0,0],"split_type":[0,0,0,0,0,0,0,0,0,0,0,0,0,0,0,0,0,0,0,0,0,0,0,0,0,0,0,0,0],"sum_hessian":[4.070057E1,4.1590767E0,3.6541492E1,2.7993884E0,1.359688E0,4.71619E0,3.1825302E1,1.6496519E0,1.1497365E0,1.6972278E0,3.018962E0,2.3854012E0,2.9439901E1,1.980005E0,1.0389568E0,1.351904E0,1.0334972E0,3.8626053E0,2.5577295E1,2.791119E0,1.0714862E0,1.7633022E1,7.9442725E0,1.7722383E0,1.018881E0,1.2607039E1,5.025983E0,5.1311345E0,2.8131378E0],"tree_param":{"num_deleted":"0","num_feature":"8","num_nodes":"29","size_leaf_vector":"1"}},{"base_weights":[-1.4300895E-2,-3.6005385E-2,1.9195017E-1,-5.0082184E-2,6.919634E-2,-1.5025967E-3,1.1100776E-1,-2.5732392E-1,-2.2012176E-2,-1.4464192E-1,6.531562E-4,8.499748E-2,-4.3749247E-2,2.5947653E-2,-2.564068E-2,7.921146E-2,-6.563733E-2,-4.008922E-3,-6.1139572E-2],"categories":[],"categories_nodes":[],"categories_segments":[],"categories_sizes":[],"default_left":[0,0,0,0,0,0,0,0,0,0,0,0,0,0,0,0,0,0,0],"id":37,"left_children":[1,3,5,7,-1,-1,-1,9,11,-1,13,-1,15,-1,-1,-1,17,-1,-1],"loss_changes":[1.9054124E-1,